{"learner":{"attributes":{"scikit_learn":"{\"_estimator_type\": \"classifier\"}"},"feature_names":["Gender","Age","Working Professional or Student","Academic Pressure","Work Pressure","CGPA","Study Satisfaction","Job Satisfaction","Sleep Duration","Have you ever had suicidal thoughts ?","Work/Study Hours","Financial Stress","Family History of Mental Illness","Dietary Habits_Moderate","Dietary Habits_Unhealthy"],"feature_types":["int","float","int","float","float","float","float","float","int","int","float","float","int","int","int"],"gradient_booster":{"model":{"cats":{"enc":[],"feature_segments":[],"sorted_idx":[]},"gbtree_model_param":{"num_parallel_tree":"1","num_trees":"100"},"iteration_indptr":[0,1,2,3,4,5,6,7,8,9,10,11,12,13,14,15,16,17,18,19,20,21,22,23,24,25,26,27,28,29,30,31,32,33,34,35,36,37,38,39,40,41,42,43,44,45,46,47,48,49,50,51,52,53,54,55,56,57,58,59,60,61,62,63,64,65,66,67,68,69,70,71,72,73,74,75,76,77,78,79,80,81,82,83,84,85,86,87,88,89,90,91,92,93,94,95,96,97,98,99,100],"tree_info":[0,0,0,0,0,0,0,0,0,0,0,0,0,0,0,0,0,0,0,0,0,0,0,0,0,0,0,0,0,0,0,0,0,0,0,0,0,0,0,0,0,0,0,0,0,0,0,0,0,0,0,0,0,0,0,0,0,0,0,0,0,0,0,0,0,0,0,0,0,0,0,0,0,0,0,0,0,0,0,0,0,0,0,0,0,0,0,0,0,0,0,0,0,0,0,0,0,0,0,0],"trees":[{"base_weights":[-0E0,1.341416E0,-1.7133435E0,6.2908344E-2,1.7046467E0,-1.945573E0,-1.439538E0,-4.8083258E-1,1.38368E0,1.7854415E0,1.0568562E0,-1.9498776E0,-7.4509805E-1,-8.330928E-1,-1.777947E0,-1.4629174E0,1.07834876E-1,6.6024095E-1,1.6438833E0,1.4494293E0,1.8720235E0,7.856865E-2,1.4894056E0,-1.9714831E0,-1.8501363E0,-1.3877552E0,3.7288135E-1,-2.2154963E-1,-1.520954E0,-1.8856381E0,-1.3280962E0,-1.6965253E0,-1.1740321E0,-2.639863E-1,8.8160884E-1,1.0259966E0,-1.7254902E-1,1.4688259E0,1.843985E0,8.439254E-1,1.738607E0,1.7548956E0,1.9408326E0,-4.8342374E-1,1.0960698E0,7.4822694E-1,1.6667379E0,-1.9734845E0,-1.5767195E0,5.769231E-1,-1.903315E0,-4.9411768E-1,-7.058824E-1,1.0243902E0,-9.0909094E-1,-7.283135E-1,8.908213E-1,-1.806188E0,-1.119281E0,-1.9372635E0,-1.667816E0,5.8775514E-1,-1.4825919E0,-5.2812743E-1,-4.043738E-1,-4.700252E-1,-2.4875914E-1,-3.3174255E-1,1.6946848E-1,4.1692725E-1,3.409091E-2,3.4891614E-1,-1.5463917E-1,6.739727E-2,-3.4228188E-1,5.952849E-1,3.9969468E-1,5.692479E-1,4.611276E-1,5.298701E-3,4.4123223E-1,4.4211757E-1,5.515655E-1,4.396599E-1,5.696837E-1,5.4549074E-1,5.858061E-1,1.0394511E-1,-2.788889E-1,-5.675676E-2,4.010363E-1,-1.1291513E-1,3.2961676E-1,1.6578947E-1,5.1078755E-1,-5.8277017E-1,-5.96905E-1,-5.138122E-1,3E-1,-5.062889E-1,-5.867518E-1,-3.6E-1,-0E0,-2.7272728E-1,4.5882356E-1,-4.0000004E-1,-8.5714296E-2,-3.4625232E-1,1.1392405E-1,6.1613698E-2,4.003185E-1,-5.654552E-1,-4.3778804E-1,-4.7404745E-1,-1.5325165E-1,-5.461455E-1,-5.8920026E-1,5.766991E-1,-5.3256434E-1,-1.8715596E-1,-5.3626233E-1],"categories":[],"categories_nodes":[],"categories_segments":[],"categories_sizes":[],"default_left":[0,0,0,0,0,0,0,0,0,0,0,0,0,0,0,0,0,0,0,0,0,0,0,0,0,0,0,0,0,0,0,0,0,0,0,0,0,0,0,0,0,0,0,0,0,0,0,0,0,0,0,0,0,0,0,0,0,0,0,0,0,0,0,0,0,0,0,0,0,0,0,0,0,0,0,0,0,0,0,0,0,0,0,0,0,0,0,0,0,0,0,0,0,0,0,0,0,0,0,0,0,0,0,0,0,0,0,0,0,0,0,0,0,0,0,0,0,0,0,0,0],"id":0,"left_children":[1,3,5,7,9,11,13,15,17,19,21,23,25,27,29,31,33,35,37,39,41,43,45,47,49,51,53,55,57,59,61,63,65,67,69,71,73,75,77,79,81,83,85,87,89,91,93,95,97,-1,99,-1,101,103,105,107,109,111,113,115,117,-1,119,-1,-1,-1,-1,-1,-1,-1,-1,-1,-1,-1,-1,-1,-1,-1,-1,-1,-1,-1,-1,-1,-1,-1,-1,-1,-1,-1,-1,-1,-1,-1,-1,-1,-1,-1,-1,-1,-1,-1,-1,-1,-1,-1,-1,-1,-1,-1,-1,-1,-1,-1,-1,-1,-1,-1,-1,-1,-1],"loss_changes":[9.919721E4,1.1241922E4,1.2023359E3,3.8478354E3,9.8478906E2,5.153125E1,1.7843477E3,2.1944175E3,2.930415E2,4.848789E2,8.85552E2,1.8363281E1,2.7999226E1,1.3114812E3,2.680254E2,9.400708E1,6.832457E2,1.2658504E2,3.7522705E1,6.0056445E2,1.0396875E2,3.6807227E2,1.8949805E2,3.5078125E0,3.7186133E2,3.1692657E0,1.3250704E1,9.318967E2,1.6611108E2,4.7407227E1,5.5242065E2,1.5096924E1,8.527002E1,1.1200231E3,3.0062274E2,6.1550385E1,4.9299335E1,4.0806885E1,5.81958E0,5.765728E2,5.8867676E1,2.0316113E2,8.626953E0,1.5390799E2,7.110199E1,1.1156973E2,4.584839E1,3.0859375E-1,1.8269196E1,0E0,1.7204102E1,0E0,2.9647055E0,1.1398983E1,1.0735931E0,5.362573E2,1.5706876E2,2.0621338E1,1.708081E2,7.7714844E0,3.3886328E2,0E0,2.6966016E2,0E0,0E0,0E0,0E0,0E0,0E0,0E0,0E0,0E0,0E0,0E0,0E0,0E0,0E0,0E0,0E0,0E0,0E0,0E0,0E0,0E0,0E0,0E0,0E0,0E0,0E0,0E0,0E0,0E0,0E0,0E0,0E0,0E0,0E0,0E0,0E0,0E0,0E0,0E0,0E0,0E0,0E0,0E0,0E0,0E0,0E0,0E0,0E0,0E0,0E0,0E0,0E0,0E0,0E0,0E0,0E0,0E0,0E0],"parents":[2147483647,0,0,1,1,2,2,3,3,4,4,5,5,6,6,7,7,8,8,9,9,10,10,11,11,12,12,13,13,14,14,15,15,16,16,17,17,18,18,19,19,20,20,21,21,22,22,23,23,24,24,25,25,26,26,27,27,28,28,29,29,30,30,31,31,32,32,33,33,34,34,35,35,36,36,37,37,38,38,39,39,40,40,41,41,42,42,43,43,44,44,45,45,46,46,47,47,48,48,50,50,52,52,53,53,54,54,55,55,56,56,57,57,58,58,59,59,60,60,62,62],"right_children":[2,4,6,8,10,12,14,16,18,20,22,24,26,28,30,32,34,36,38,40,42,44,46,48,50,52,54,56,58,60,62,64,66,68,70,72,74,76,78,80,82,84,86,88,90,92,94,96,98,-1,100,-1,102,104,106,108,110,112,114,116,118,-1,120,-1,-1,-1,-1,-1,-1,-1,-1,-1,-1,-1,-1,-1,-1,-1,-1,-1,-1,-1,-1,-1,-1,-1,-1,-1,-1,-1,-1,-1,-1,-1,-1,-1,-1,-1,-1,-1,-1,-1,-1,-1,-1,-1,-1,-1,-1,-1,-1,-1,-1,-1,-1,-1,-1,-1,-1,-1,-1],"split_conditions":[5.6666666E-1,1E0,1E0,6.071528E-1,6E-1,6.071528E-1,7.3333335E-1,4.070558E-1,4.070558E-1,4.070558E-1,6.014689E-1,8.0168664E-1,6.086509E-1,6E-1,8.0168664E-1,5.8991945E-1,6.014689E-1,8E-1,8.0615973E-1,4.011358E-1,4.011358E-1,8.0615973E-1,4.070558E-1,4.011358E-1,1E0,1E0,7.756401E-1,8.0168664E-1,6.014689E-1,8.0615973E-1,1E0,4.011358E-1,2.20302E-1,2.0795915E-1,6E-1,5.3333336E-1,4.8333332E-1,6E-1,4.8333332E-1,4.0472737E-1,6.071528E-1,4.0472737E-1,1.6778608E-1,3.6666667E-1,2.083382E-1,4.2883575E-1,3.0652087E-2,7.3333335E-1,6.166667E-1,5.769231E-1,3.9726543E-1,-4.9411768E-1,1E0,2.5451744E-1,8.020704E-1,8.0615973E-1,6.086509E-1,8.0615973E-1,6.086509E-1,3.9949477E-1,1E0,5.8775514E-1,3.9949477E-1,-5.2812743E-1,-4.043738E-1,-4.700252E-1,-2.4875914E-1,-3.3174255E-1,1.6946848E-1,4.1692725E-1,3.409091E-2,3.4891614E-1,-1.5463917E-1,6.739727E-2,-3.4228188E-1,5.952849E-1,3.9969468E-1,5.692479E-1,4.611276E-1,5.298701E-3,4.4123223E-1,4.4211757E-1,5.515655E-1,4.396599E-1,5.696837E-1,5.4549074E-1,5.858061E-1,1.0394511E-1,-2.788889E-1,-5.675676E-2,4.010363E-1,-1.1291513E-1,3.2961676E-1,1.6578947E-1,5.1078755E-1,-5.8277017E-1,-5.96905E-1,-5.138122E-1,3E-1,-5.062889E-1,-5.867518E-1,-3.6E-1,-0E0,-2.7272728E-1,4.5882356E-1,-4.0000004E-1,-8.5714296E-2,-3.4625232E-1,1.1392405E-1,6.1613698E-2,4.003185E-1,-5.654552E-1,-4.3778804E-1,-4.7404745E-1,-1.5325165E-1,-5.461455E-1,-5.8920026E-1,5.766991E-1,-5.3256434E-1,-1.8715596E-1,-5.3626233E-1],"split_indices":[1,9,9,3,7,3,1,11,11,11,4,4,11,7,4,10,4,6,11,3,3,11,11,3,4,14,6,4,4,11,4,3,11,3,7,1,1,11,1,4,3,4,10,1,4,10,10,1,1,0,7,0,12,10,3,11,11,11,11,7,11,0,7,0,0,0,0,0,0,0,0,0,0,0,0,0,0,0,0,0,0,0,0,0,0,0,0,0,0,0,0,0,0,0,0,0,0,0,0,0,0,0,0,0,0,0,0,0,0,0,0,0,0,0,0,0,0,0,0,0,0],"split_type":[0,0,0,0,0,0,0,0,0,0,0,0,0,0,0,0,0,0,0,0,0,0,0,0,0,0,0,0,0,0,0,0,0,0,0,0,0,0,0,0,0,0,0,0,0,0,0,0,0,0,0,0,0,0,0,0,0,0,0,0,0,0,0,0,0,0,0,0,0,0,0,0,0,0,0,0,0,0,0,0,0,0,0,0,0,0,0,0,0,0,0,0,0,0,0,0,0,0,0,0,0,0,0,0,0,0,0,0,0,0,0,0,0,0,0,0,0,0,0,0,0],"sum_hessian":[4.3159E4,2.4207E4,1.8952E4,5.356E3,1.8851E4,1.025125E4,8.70075E3,3.7945E3,1.5615E3,1.6759E4,2.092E3,1.0214E4,3.725E1,3.1175E3,5.58325E3,1.4215E3,2.373E3,4.14E2,1.1475E3,3.43725E3,1.332175E4,6.4175E2,1.45025E3,8.38E3,1.834E3,2.35E1,1.375E1,1.651E3,1.4665E3,4.50225E3,1.081E3,7.8325E2,6.3825E2,1.60325E3,7.6975E2,2.875E2,1.265E2,6.165E2,5.31E2,1.11225E3,2.325E3,4.93975E3,8.382E3,4.1375E2,2.28E2,2.81E2,1.16925E3,8.33375E3,4.625E1,2.5E1,1.809E3,1.6E1,7.5E0,9.25E0,4.5E0,1.1345E3,5.165E2,8.555E2,6.11E2,3.63325E3,8.69E2,4.8E1,1.033E3,6.585E2,1.2475E2,2.9675E2,3.415E2,7.9525E2,8.08E2,4.6275E2,3.07E2,2.6425E2,2.325E1,9.025E1,3.625E1,1.2625E2,4.9025E2,4.4775E2,8.325E1,4.8025E2,6.32E2,6.4125E2,1.68375E3,1.6455E3,3.29425E3,7.53E2,7.629E3,1.4475E2,2.69E2,3.6E1,1.92E2,6.675E1,2.1425E2,3.7E1,1.13225E3,2.90675E3,5.427E3,4.425E1,2E0,3.6075E2,1.44825E3,4E0,3.5E0,1.75E0,7.5E0,2E0,2.5E0,8.195E2,3.15E2,2.035E2,3.13E2,6.9375E2,1.6175E2,3.4675E2,2.6425E2,6.8975E2,2.9435E3,2.475E1,8.4425E2,2.715E2,7.615E2],"tree_param":{"num_deleted":"0","num_feature":"15","num_nodes":"121","size_leaf_vector":"1"}},{"base_weights":[-4.4159088E-4,1.0544543E0,-1.2593833E0,1.2632474E-1,1.3176771E0,-2.7277413E-1,-1.3374083E0,-4.557588E-1,8.4980446E-1,1.3652476E0,6.8343246E-1,-1.2039714E0,3.928599E-1,-1.4310216E0,-9.6624196E-1,-8.1108457E-1,5.758942E-1,1.7323597E-1,1.1097277E0,8.5744745E-1,1.4079047E0,-2.0684902E-1,1.0786449E0,-1.2857183E0,-8.43794E-2,-4.6388444E-1,7.415087E-1,-1.4823445E0,-1.2108103E0,1.7653441E0,-1.105527E0,-1.0538967E0,2.3351464E-1,1.883763E0,1.10334694E-1,-2.1358909E-1,8.6859316E-1,1.1838429E0,2.0203896E-1,2.7607256E-1,1.2169684E0,1.2865902E0,1.486818E0,-6.253393E-1,6.163401E-1,1.9569087E-1,1.1764783E0,-1.3956039E0,-7.273985E-1,4.5401582E-1,-4.5953485E-1,-8.2551485E-1,6.4554197E-1,4.4087136E-1,1.4579546E0,-1.3569552E0,-1.5102838E0,5.7656187E-1,-1.3120879E0,1.8542526E0,4.5769817E-1,-4.7718436E-1,-1.3201283E0,-3.980066E-1,-2.429381E-1,5.508018E-1,-8.7068945E-2,6.384179E-1,5.195013E-1,-1.2436245E-1,2.2512446E-1,6.8824154E-1,-1.1201954E-1,5.195264E-1,1.2293648E-1,5.494242E-1,3.3317477E-1,-1.8544193E-1,1.9408678E-1,-1.0700835E-1,2.4042058E-1,1.5734802E-1,3.852644E-1,3.156489E-1,4.372772E-1,4.300991E-1,4.5449036E-1,-3.0244368E-1,-2.8883744E-2,2.9073724E-1,-1.7091689E-1,-5.4971702E-2,2.6206094E-1,4.355855E-2,3.7659165E-1,-4.7348186E-1,-3.565544E-1,5.2690226E-1,-2.8572407E-1,1.17971405E-1,-2.1154684E-1,-2.9127762E-1,4.8255607E-2,2.9355794E-1,-1.773081E-2,-7.100415E-2,2.5542015E-1,1.1992765E-1,4.460452E-1,-4.2161587E-1,7.330515E-1,-4.6194857E-1,-4.413201E-1,-4.5284584E-1,-3.2936373E-1,5.1629126E-1,6.5228564E-1,-2.1285212E-1,5.8724385E-1,-4.5416373E-1,-3.2758477E-1],"categories":[],"categories_nodes":[],"categories_segments":[],"categories_sizes":[],"default_left":[0,0,0,0,0,0,0,0,0,0,0,0,0,0,0,0,0,0,0,0,0,0,0,0,0,0,0,0,0,0,0,0,0,0,0,0,0,0,0,0,0,0,0,0,0,0,0,0,0,0,0,0,0,0,0,0,0,0,0,0,0,0,0,0,0,0,0,0,0,0,0,0,0,0,0,0,0,0,0,0,0,0,0,0,0,0,0,0,0,0,0,0,0,0,0,0,0,0,0,0,0,0,0,0,0,0,0,0,0,0,0,0,0,0,0,0,0,0,0,0,0],"id":1,"left_children":[1,3,5,7,9,11,13,15,17,19,21,23,25,27,29,31,33,35,37,39,41,43,45,47,49,51,53,55,57,59,61,63,65,67,69,71,73,75,77,79,81,83,85,87,89,91,93,95,97,-1,99,101,103,105,107,109,111,-1,113,115,-1,117,119,-1,-1,-1,-1,-1,-1,-1,-1,-1,-1,-1,-1,-1,-1,-1,-1,-1,-1,-1,-1,-1,-1,-1,-1,-1,-1,-1,-1,-1,-1,-1,-1,-1,-1,-1,-1,-1,-1,-1,-1,-1,-1,-1,-1,-1,-1,-1,-1,-1,-1,-1,-1,-1,-1,-1,-1,-1,-1],"loss_changes":[5.3560734E4,5.3607188E3,1.4150586E3,2.042586E3,5.1484375E2,8.365058E2,5.9065625E2,9.857939E2,3.8008557E2,3.4323633E2,4.2058875E2,5.137207E1,2.3551523E2,1.5196875E2,1.3088596E3,5.0746326E2,4.1943982E2,1.6194296E2,1.0484656E2,2.5776025E2,1.385039E2,1.27210724E2,7.125836E1,3.1141663E1,2.4279585E1,9.214215E1,1.1996973E2,3.6585938E1,8.201196E2,7.305908E-1,4.4016577E2,1.0698425E2,3.1776974E2,3.0351562E0,1.714284E2,1.5603568E2,8.449722E1,6.6468994E1,4.3869774E1,1.575567E2,3.4842163E1,2.3049707E2,1.1115234E1,4.9433983E1,5.2680313E1,2.1671932E1,6.036731E1,1.4649963E1,5.1012222E1,0E0,7.112151E0,2.4918106E1,1.33601E1,1.1031862E2,4.447754E0,3.7515503E2,8.175781E0,0E0,1.0392139E2,1.2572632E0,0E0,4.7300574E2,1.0604932E2,0E0,0E0,0E0,0E0,0E0,0E0,0E0,0E0,0E0,0E0,0E0,0E0,0E0,0E0,0E0,0E0,0E0,0E0,0E0,0E0,0E0,0E0,0E0,0E0,0E0,0E0,0E0,0E0,0E0,0E0,0E0,0E0,0E0,0E0,0E0,0E0,0E0,0E0,0E0,0E0,0E0,0E0,0E0,0E0,0E0,0E0,0E0,0E0,0E0,0E0,0E0,0E0,0E0,0E0,0E0,0E0,0E0,0E0],"parents":[2147483647,0,0,1,1,2,2,3,3,4,4,5,5,6,6,7,7,8,8,9,9,10,10,11,11,12,12,13,13,14,14,15,15,16,16,17,17,18,18,19,19,20,20,21,21,22,22,23,23,24,24,25,25,26,26,27,27,28,28,29,29,30,30,31,31,32,32,33,33,34,34,35,35,36,36,37,37,38,38,39,39,40,40,41,41,42,42,43,43,44,44,45,45,46,46,47,47,48,48,50,50,51,51,52,52,53,53,54,54,55,55,56,56,58,58,59,59,61,61,62,62],"right_children":[2,4,6,8,10,12,14,16,18,20,22,24,26,28,30,32,34,36,38,40,42,44,46,48,50,52,54,56,58,60,62,64,66,68,70,72,74,76,78,80,82,84,86,88,90,92,94,96,98,-1,100,102,104,106,108,110,112,-1,114,116,-1,118,120,-1,-1,-1,-1,-1,-1,-1,-1,-1,-1,-1,-1,-1,-1,-1,-1,-1,-1,-1,-1,-1,-1,-1,-1,-1,-1,-1,-1,-1,-1,-1,-1,-1,-1,-1,-1,-1,-1,-1,-1,-1,-1,-1,-1,-1,-1,-1,-1,-1,-1,-1,-1,-1,-1,-1,-1,-1,-1],"split_conditions":[5.5E-1,1E0,5.833333E-1,4.011358E-1,8E-1,1E0,8.0168664E-1,8.0615973E-1,4.070558E-1,2.20302E-1,6.014689E-1,8.020704E-1,4.070558E-1,8.0615973E-1,1E0,8.0168664E-1,1E0,8.020704E-1,1E0,4.011358E-1,4.011358E-1,8.0615973E-1,1.6778608E-1,8.0615973E-1,1E0,6.071528E-1,6.071528E-1,3.9949477E-1,1E0,7.3333335E-1,3.9949477E-1,5.0628436E-1,1E0,6.014689E-1,6.014689E-1,6E-1,1E0,6E-1,5.0628436E-1,4.0472737E-1,1.6778608E-1,6.014689E-1,6.086509E-1,4.0472737E-1,4.3333334E-1,8.0615973E-1,2.20302E-1,5.5298156E-1,1E0,4.5401582E-1,3.800398E-1,8.0168664E-1,8E-1,5.5298156E-1,3.0652087E-2,2.0033292E-1,1E0,5.7656187E-1,1E0,5.9093803E-1,4.5769817E-1,2.0033292E-1,1E0,-3.980066E-1,-2.429381E-1,5.508018E-1,-8.7068945E-2,6.384179E-1,5.195013E-1,-1.2436245E-1,2.2512446E-1,6.8824154E-1,-1.1201954E-1,5.195264E-1,1.2293648E-1,5.494242E-1,3.3317477E-1,-1.8544193E-1,1.9408678E-1,-1.0700835E-1,2.4042058E-1,1.5734802E-1,3.852644E-1,3.156489E-1,4.372772E-1,4.300991E-1,4.5449036E-1,-3.0244368E-1,-2.8883744E-2,2.9073724E-1,-1.7091689E-1,-5.4971702E-2,2.6206094E-1,4.355855E-2,3.7659165E-1,-4.7348186E-1,-3.565544E-1,5.2690226E-1,-2.8572407E-1,1.17971405E-1,-2.1154684E-1,-2.9127762E-1,4.8255607E-2,2.9355794E-1,-1.773081E-2,-7.100415E-2,2.5542015E-1,1.1992765E-1,4.460452E-1,-4.2161587E-1,7.330515E-1,-4.6194857E-1,-4.413201E-1,-4.5284584E-1,-3.2936373E-1,5.1629126E-1,6.5228564E-1,-2.1285212E-1,5.8724385E-1,-4.5416373E-1,-3.2758477E-1],"split_indices":[1,9,1,3,7,9,4,11,11,11,4,3,11,11,4,4,11,3,6,3,3,11,10,11,3,3,3,7,11,1,7,10,4,4,4,3,3,3,10,4,10,4,11,4,1,11,11,1,11,0,6,4,6,1,10,7,9,0,9,7,0,7,9,0,0,0,0,0,0,0,0,0,0,0,0,0,0,0,0,0,0,0,0,0,0,0,0,0,0,0,0,0,0,0,0,0,0,0,0,0,0,0,0,0,0,0,0,0,0,0,0,0,0,0,0,0,0,0,0,0,0],"split_type":[0,0,0,0,0,0,0,0,0,0,0,0,0,0,0,0,0,0,0,0,0,0,0,0,0,0,0,0,0,0,0,0,0,0,0,0,0,0,0,0,0,0,0,0,0,0,0,0,0,0,0,0,0,0,0,0,0,0,0,0,0,0,0,0,0,0,0,0,0,0,0,0,0,0,0,0,0,0,0,0,0,0,0,0,0,0,0,0,0,0,0,0,0,0,0,0,0,0,0,0,0,0,0,0,0,0,0,0,0,0,0,0,0,0,0,0,0,0,0,0,0],"sum_hessian":[4.0328285E4,2.1942406E4,1.8385877E4,4.8483813E3,1.7094023E4,1.3477954E3,1.7038082E4,2.6869424E3,2.1614392E3,1.5900295E4,1.1937288E3,5.6148706E2,7.863083E2,1.3604091E4,3.4339915E3,1.9987421E3,6.882004E2,6.0037E2,1.5610691E3,1.233813E3,1.4666482E4,3.6714664E2,8.265821E2,5.2314154E2,3.834555E1,2.2733679E2,5.589715E2,1.1028116E4,2.5759749E3,1.6603935E2,3.2679521E3,1.6217623E3,3.769797E2,1.7986632E2,5.0833408E2,3.8621347E2,2.1415652E2,1.4429447E3,1.18124435E2,4.7212152E2,7.6169147E2,5.787132E3,8.879351E3,2.4356445E2,1.2358219E2,8.275072E1,7.4383136E2,4.3585855E2,8.728299E1,6.714568E0,3.1630981E1,1.7164351E2,5.5693283E1,3.9488425E2,1.6408725E2,2.0185599E3,9.009557E3,8.0108505E1,2.4958662E3,1.16199844E2,4.983951E1,8.327939E2,2.4351582E3,7.637809E2,8.5798145E2,9.224224E1,2.847375E2,6.4028656E1,1.15837654E2,2.7949554E2,2.2883855E2,2.2337536E1,3.6387592E2,7.336276E1,1.4079376E2,1.442121E2,1.2987325E3,4.140583E1,7.6718605E1,2.143068E2,2.5781473E2,6.8199524E1,6.9349194E2,2.4439011E3,3.3432307E3,3.0922651E3,5.787085E3,1.4078944E2,1.0277502E2,9.5391685E1,2.8190506E1,5.354668E1,2.9204042E1,5.3020096E1,6.908113E2,2.2806564E2,2.0779291E2,6.685233E0,8.059776E1,6.9388785E0,2.4692102E1,1.4960443E2,2.2039076E1,3.755686E1,1.8136421E1,1.4914822E2,2.4573602E2,4.750997E0,1.5933626E2,1.9937825E3,2.4777515E1,5.1166143E3,3.8929421E3,1.2957535E3,1.2001127E3,8.653763E1,2.9662214E1,7.608956E2,7.189829E1,1.313883E3,1.1212753E3],"tree_param":{"num_deleted":"0","num_feature":"15","num_nodes":"121","size_leaf_vector":"1"}},{"base_weights":[-5.890784E-4,8.237848E-1,-1.0928073E0,3.9009333E-2,1.0714334E0,-1.2972561E0,-8.682151E-1,-2.89172E-1,8.654426E-1,7.2000057E-1,1.1700325E0,-1.3010759E0,-3.8387778E-1,-5.1042724E-1,-1.2672582E0,-7.310304E-1,2.4114046E-1,1.5164509E0,7.299669E-1,2.4753755E-1,1.0839254E0,1.2173932E0,8.1073594E-1,-1.250909E0,-4.0143403E-1,-8.5622996E-1,3.9460105E-1,2.1558419E-1,-8.136713E-1,-1.1263864E0,-1.3383445E0,-9.38081E-1,-2.9223603E-1,1.8468102E0,5.9794128E-2,5.466692E-1,4.3133113E-1,9.2633076E-2,9.96785E-1,-3.8528264E-1,5.9706926E-1,8.297873E-1,1.185395E0,9.5566183E-1,1.2444147E0,-1.2473412E-3,9.7115886E-1,-1.289052E0,-1.0562986E0,-1.0970962E0,-3.0591258E-1,8.574895E-1,-5.3370434E-1,-3.9270252E-1,7.704144E-1,-1.1436462E0,-4.0046012E-1,-7.284996E-1,-1.2366495E0,-4.1037434E-1,-1.2711071E0,-3.7268144E-1,-2.3751964E-1,-2.4298926E-1,2.526436E-2,5.9465146E-1,4.6078214E-1,-2.1641843E-1,1.5153834E-1,-1.0139937E-1,1.8225802E-1,4.31231E-1,2.1536157E-1,-2.2788922E-1,1.5904538E-1,2.461731E-1,-1.2673979E-2,4.288183E-1,2.0481403E-1,2.8110337E-1,3.7254664E-1,3.1626174E-1,1.092524E-1,3.4816724E-1,3.8880062E-1,-1.6531183E-1,1.4922957E-1,1.6562922E-1,3.3427304E-1,-3.970194E-1,-3.686666E-1,5.7202137E-1,-3.465725E-1,-1.42367E-1,-3.5645097E-1,-2.2861736E-1,7.182633E-2,-1.8132684E-1,3.697233E-1,-2.6119003E-1,3.5653617E-2,-1.5452258E-1,5.43888E-1,8.449657E-2,4.1682097E-1,-3.6850423E-1,-2.4664094E-1,-2.2280924E-1,1.1399969E-1,-3.4791586E-1,-5.6198835E-2,-3.8528028E-1,-3.198954E-1,-4.0551862E-1,-3.5273814E-1],"categories":[],"categories_nodes":[],"categories_segments":[],"categories_sizes":[],"default_left":[0,0,0,0,0,0,0,0,0,0,0,0,0,0,0,0,0,0,0,0,0,0,0,0,0,0,0,0,0,0,0,0,0,0,0,0,0,0,0,0,0,0,0,0,0,0,0,0,0,0,0,0,0,0,0,0,0,0,0,0,0,0,0,0,0,0,0,0,0,0,0,0,0,0,0,0,0,0,0,0,0,0,0,0,0,0,0,0,0,0,0,0,0,0,0,0,0,0,0,0,0,0,0,0,0,0,0,0,0,0,0,0,0,0,0],"id":2,"left_children":[1,3,5,7,9,11,13,15,17,19,21,23,25,27,29,31,33,35,37,39,41,43,45,47,-1,49,51,53,55,57,59,61,63,65,67,-1,-1,69,71,73,75,77,79,81,83,85,87,89,91,93,95,97,99,101,103,105,107,109,111,-1,113,-1,-1,-1,-1,-1,-1,-1,-1,-1,-1,-1,-1,-1,-1,-1,-1,-1,-1,-1,-1,-1,-1,-1,-1,-1,-1,-1,-1,-1,-1,-1,-1,-1,-1,-1,-1,-1,-1,-1,-1,-1,-1,-1,-1,-1,-1,-1,-1,-1,-1,-1,-1,-1,-1],"loss_changes":[3.1800488E4,3.9116191E3,6.964199E2,1.3099528E3,5.292871E2,2.7239258E1,1.0333213E3,8.102618E2,1.1996814E2,5.7651355E2,2.0228516E2,1.3036133E1,1.3034757E1,8.412003E2,3.277002E1,1.7108209E2,4.576405E2,3.046997E0,1.9347058E2,3.233684E2,4.787378E1,7.344043E1,1.8161261E2,2.3710938E1,0E0,2.554739E0,6.3547688E0,3.8041806E2,3.6697693E2,4.974109E1,2.7739258E0,5.604297E1,1.18198715E2,3.6670532E0,4.92122E2,0E0,0E0,7.492928E1,9.7567566E1,1.7874373E2,1.345661E2,4.6993256E1,1.7781128E1,5.7425476E1,3.9859375E1,6.3609955E1,6.9191895E1,4.2001953E0,1.6610645E2,2.7414322E-1,2.1786842E0,5.9744043E0,1.2429411E0,1.4612581E2,1.7791168E2,3.9777832E1,3.202794E2,5.880162E1,5.949951E0,0E0,3.8466797E0,0E0,0E0,0E0,0E0,0E0,0E0,0E0,0E0,0E0,0E0,0E0,0E0,0E0,0E0,0E0,0E0,0E0,0E0,0E0,0E0,0E0,0E0,0E0,0E0,0E0,0E0,0E0,0E0,0E0,0E0,0E0,0E0,0E0,0E0,0E0,0E0,0E0,0E0,0E0,0E0,0E0,0E0,0E0,0E0,0E0,0E0,0E0,0E0,0E0,0E0,0E0,0E0,0E0,0E0],"parents":[2147483647,0,0,1,1,2,2,3,3,4,4,5,5,6,6,7,7,8,8,9,9,10,10,11,11,12,12,13,13,14,14,15,15,16,16,17,17,18,18,19,19,20,20,21,21,22,22,23,23,25,25,26,26,27,27,28,28,29,29,30,30,31,31,32,32,33,33,34,34,37,37,38,38,39,39,40,40,41,41,42,42,43,43,44,44,45,45,46,46,47,47,48,48,49,49,50,50,51,51,52,52,53,53,54,54,55,55,56,56,57,57,58,58,60,60],"right_children":[2,4,6,8,10,12,14,16,18,20,22,24,26,28,30,32,34,36,38,40,42,44,46,48,-1,50,52,54,56,58,60,62,64,66,68,-1,-1,70,72,74,76,78,80,82,84,86,88,90,92,94,96,98,100,102,104,106,108,110,112,-1,114,-1,-1,-1,-1,-1,-1,-1,-1,-1,-1,-1,-1,-1,-1,-1,-1,-1,-1,-1,-1,-1,-1,-1,-1,-1,-1,-1,-1,-1,-1,-1,-1,-1,-1,-1,-1,-1,-1,-1,-1,-1,-1,-1,-1,-1,-1,-1,-1,-1,-1,-1,-1,-1,-1],"split_conditions":[5.6666666E-1,1E0,1E0,6.071528E-1,4.070558E-1,6.071528E-1,8E-1,6.086509E-1,8E-1,4.011358E-1,6E-1,7.6666665E-1,6.086509E-1,3.9949477E-1,8.666667E-1,1E0,8E-1,4.070558E-1,8.020704E-1,5.0628436E-1,6.071528E-1,1.6778608E-1,4.0472737E-1,8.0615973E-1,-4.0143403E-1,1E0,7.756401E-1,6.014689E-1,6.014689E-1,4E-1,1E0,2.20302E-1,5.0628436E-1,4.011358E-1,8.0615973E-1,5.466692E-1,4.3133113E-1,6.086509E-1,1E0,8.0168664E-1,4.6666667E-1,6E-1,3.4680945E-1,5E-1,4.011358E-1,5.8991945E-1,4.2883575E-1,6.014689E-1,1E0,2E0,1E0,2.5451744E-1,3E0,2.0033292E-1,7.5088716E-1,8.0615973E-1,7.5088716E-1,5.8991945E-1,7.5088716E-1,-4.1037434E-1,5.0628436E-1,-3.7268144E-1,-2.3751964E-1,-2.4298926E-1,2.526436E-2,5.9465146E-1,4.6078214E-1,-2.1641843E-1,1.5153834E-1,-1.0139937E-1,1.8225802E-1,4.31231E-1,2.1536157E-1,-2.2788922E-1,1.5904538E-1,2.461731E-1,-1.2673979E-2,4.288183E-1,2.0481403E-1,2.8110337E-1,3.7254664E-1,3.1626174E-1,1.092524E-1,3.4816724E-1,3.8880062E-1,-1.6531183E-1,1.4922957E-1,1.6562922E-1,3.3427304E-1,-3.970194E-1,-3.686666E-1,5.7202137E-1,-3.465725E-1,-1.42367E-1,-3.5645097E-1,-2.2861736E-1,7.182633E-2,-1.8132684E-1,3.697233E-1,-2.6119003E-1,3.5653617E-2,-1.5452258E-1,5.43888E-1,8.449657E-2,4.1682097E-1,-3.6850423E-1,-2.4664094E-1,-2.2280924E-1,1.1399969E-1,-3.4791586E-1,-5.6198835E-2,-3.8528028E-1,-3.198954E-1,-4.0551862E-1,-3.5273814E-1],"split_indices":[1,9,9,3,11,3,1,11,3,3,7,1,11,7,1,14,11,11,3,10,3,10,4,11,0,14,6,4,4,7,14,11,10,3,11,0,0,11,3,4,1,3,10,1,3,10,10,4,11,8,12,10,8,7,10,11,10,10,10,0,10,0,0,0,0,0,0,0,0,0,0,0,0,0,0,0,0,0,0,0,0,0,0,0,0,0,0,0,0,0,0,0,0,0,0,0,0,0,0,0,0,0,0,0,0,0,0,0,0,0,0,0,0,0,0],"split_type":[0,0,0,0,0,0,0,0,0,0,0,0,0,0,0,0,0,0,0,0,0,0,0,0,0,0,0,0,0,0,0,0,0,0,0,0,0,0,0,0,0,0,0,0,0,0,0,0,0,0,0,0,0,0,0,0,0,0,0,0,0,0,0,0,0,0,0,0,0,0,0,0,0,0,0,0,0,0,0,0,0,0,0,0,0,0,0,0,0,0,0,0,0,0,0,0,0,0,0,0,0,0,0,0,0,0,0,0,0,0,0,0,0,0,0],"sum_hessian":[3.531633E4,2.0126037E4,1.519029E4,4.82793E3,1.5298106E4,7.9492363E3,7.241053E3,3.456131E3,1.3717992E3,3.3535342E3,1.1944572E4,7.915707E3,3.3529045E1,3.8190857E3,3.4219678E3,1.8850891E3,1.5710421E3,2.3454321E2,1.137256E3,1.4599038E3,1.8936305E3,1.0551357E4,1.3932144E3,3.376726E3,4.538981E3,2.080529E1,1.2723756E1,1.125282E3,2.6938037E3,1.1533052E3,2.2686626E3,1.2799778E3,6.0511127E2,1.5849731E2,1.4125448E3,4.346469E1,1.910785E2,3.3600543E2,8.0125055E2,5.1941364E2,9.4049023E2,5.4295044E2,1.35068E3,9.907987E2,9.560559E3,2.300095E2,1.1632048E3,2.818655E3,5.580711E2,1.3780283E1,7.0250072E0,8.541115E0,4.1826406E0,5.369216E2,5.8836035E2,1.4967708E3,1.1970328E3,2.5190553E2,9.0139966E2,1.5622611E3,7.064015E2,4.1334338E2,8.666344E2,2.542679E2,3.5084335E2,1.0667283E2,5.1824486E1,5.1265076E2,8.998941E2,1.8316177E2,1.5284366E2,3.0896564E2,4.922849E2,3.6877908E2,1.5063452E2,6.966535E2,2.4383669E2,1.0522774E2,4.3772272E2,2.5329947E2,1.0973805E3,8.4863135E2,1.4216734E2,3.6503193E3,5.9102397E3,1.0934835E2,1.20661156E2,2.973103E2,8.658946E2,1.7809541E3,1.0377009E3,1.7442768E1,5.4062836E2,2.551314E0,1.1228969E1,3.6089115E0,3.4160957E0,1.6184078E0,6.922707E0,2.5380003E0,1.6446401E0,5.094246E2,2.7497E1,3.2957776E2,2.587826E2,1.1824391E3,3.1433167E2,8.321688E2,3.64864E2,1.3955841E2,1.1234712E2,6.99349E2,2.020506E2,3.7555365E2,3.308478E2],"tree_param":{"num_deleted":"0","num_feature":"15","num_nodes":"115","size_leaf_vector":"1"}},{"base_weights":[-1.6374923E-3,7.2509366E-1,-9.1110754E-1,8.837799E-2,9.392199E-1,-5.5612266E-1,-1.0898874E0,-2.7497888E-1,5.567917E-1,7.43088E-1,1.1103286E0,-1.0537074E0,-1.3682345E-1,-1.1526997E0,-8.3476573E-1,-6.265334E-1,3.2046628E-1,2.2425413E-1,8.663358E-1,3.7126732E-1,9.7340965E-1,8.063126E-1,1.1388067E0,-1.0818028E0,-3.3634433E-1,2.1595283E-1,-7.2292787E-1,-1.0541939E0,-1.2015084E0,1.7971328E0,-9.3211395E-1,-9.9566984E-1,-3.724392E-1,5.197096E-1,-8.89794E-1,9.302233E-1,-8.96088E-3,9.8662525E-1,4.560203E-1,-7.516827E-2,7.7860427E-1,7.767951E-1,1.1142478E0,3.3283895E-1,9.16042E-1,1.0655282E0,1.179096E0,-1.1388894E0,-8.116052E-1,-6.800073E-1,2.196311E-1,-2.9069066E-1,6.66631E-1,-1.0219866E0,-3.9568314E-1,-1.1360947E0,-7.648752E-1,-1.1566632E0,-3.671151E-1,4.276647E-1,6.8190426E-1,-1.0669405E0,-4.056076E-1,-3.268082E-1,-1.9641078E-1,7.767625E-1,-1.4114663E-1,5.4392993E-1,1.1264894E-1,-3.6483797E-1,-1.0201506E-1,1.7654072E-1,4.5200726E-1,4.9624065E-1,-3.2833267E-2,2.3714544E-1,3.3570975E-1,-2.1568586E-1,1.849761E-1,-1.0467208E-1,1.6645697E-1,2.628453E-1,-6.8610005E-2,-7.827741E-3,2.5958547E-1,3.5581157E-1,2.8648067E-1,1.6585633E-2,2.619302E-1,2.9079488E-1,8.066564E-2,2.7592802E-1,3.3692363E-1,3.578133E-1,3.0719143E-1,-3.6255294E-1,-3.2443455E-1,4.7091734E-1,-2.8377697E-1,8.382148E-2,-2.546657E-1,2.0570703E-1,-1.7606544E-1,-1.10784836E-1,7.405578E-1,6.152876E-2,2.9985046E-1,-2.2469941E-1,-3.4260654E-1,-1.9932626E-1,1.1795494E-1,-3.6150306E-1,-3.1682807E-1,4.1959876E-1,-2.5842986E-1,-3.0849046E-1,-3.563271E-1,-2.52039E-1,-3.5297275E-1,1.0075422E-1,-2.4364565E-1],"categories":[],"categories_nodes":[],"categories_segments":[],"categories_sizes":[],"default_left":[0,0,0,0,0,0,0,0,0,0,0,0,0,0,0,0,0,0,0,0,0,0,0,0,0,0,0,0,0,0,0,0,0,0,0,0,0,0,0,0,0,0,0,0,0,0,0,0,0,0,0,0,0,0,0,0,0,0,0,0,0,0,0,0,0,0,0,0,0,0,0,0,0,0,0,0,0,0,0,0,0,0,0,0,0,0,0,0,0,0,0,0,0,0,0,0,0,0,0,0,0,0,0,0,0,0,0,0,0,0,0,0,0,0,0,0,0,0,0,0,0],"id":3,"left_children":[1,3,5,7,9,11,13,15,17,19,21,23,25,27,29,31,33,35,37,39,41,43,45,47,49,51,53,55,57,59,61,63,65,67,69,71,73,75,77,79,81,83,85,87,89,91,93,95,97,99,101,103,105,107,109,111,113,115,-1,-1,-1,117,119,-1,-1,-1,-1,-1,-1,-1,-1,-1,-1,-1,-1,-1,-1,-1,-1,-1,-1,-1,-1,-1,-1,-1,-1,-1,-1,-1,-1,-1,-1,-1,-1,-1,-1,-1,-1,-1,-1,-1,-1,-1,-1,-1,-1,-1,-1,-1,-1,-1,-1,-1,-1,-1,-1,-1,-1,-1,-1],"loss_changes":[2.000439E4,2.293583E3,8.525498E2,7.209486E2,4.2167676E2,9.39702E2,1.4229004E2,4.9958102E2,1.902727E2,5.0223755E2,5.7277344E1,4.1152344E1,5.0586063E2,3.320996E1,4.5509998E2,1.4035333E2,2.1417334E2,1.4709973E2,4.683185E1,4.0857922E2,9.946875E1,2.9783447E1,1.688086E1,2.9644287E1,1.5260195E1,3.489926E2,8.9555664E1,5.5620117E1,3.352539E0,7.9822845E0,1.2076135E2,1.8808472E1,2.597321E2,1.4137901E2,2.2127754E1,4.282109E1,1.1257204E2,1.8331787E1,4.176621E1,1.8519553E2,1.1563165E2,1.07697876E2,2.2986572E1,1.6526554E1,1.59296875E1,1.7337646E1,7.1313477E0,5.226074E0,1.1316431E2,8.195681E0,1.204237E1,1.5701048E2,1.2404425E2,1.4862274E1,9.365879E1,8.959717E0,1.1172186E2,5.18042E0,0E0,0E0,0E0,3.27948E1,1.0567722E2,0E0,0E0,0E0,0E0,0E0,0E0,0E0,0E0,0E0,0E0,0E0,0E0,0E0,0E0,0E0,0E0,0E0,0E0,0E0,0E0,0E0,0E0,0E0,0E0,0E0,0E0,0E0,0E0,0E0,0E0,0E0,0E0,0E0,0E0,0E0,0E0,0E0,0E0,0E0,0E0,0E0,0E0,0E0,0E0,0E0,0E0,0E0,0E0,0E0,0E0,0E0,0E0,0E0,0E0,0E0,0E0,0E0,0E0],"parents":[2147483647,0,0,1,1,2,2,3,3,4,4,5,5,6,6,7,7,8,8,9,9,10,10,11,11,12,12,13,13,14,14,15,15,16,16,17,17,18,18,19,19,20,20,21,21,22,22,23,23,24,24,25,25,26,26,27,27,28,28,29,29,30,30,31,31,32,32,33,33,34,34,35,35,36,36,37,37,38,38,39,39,40,40,41,41,42,42,43,43,44,44,45,45,46,46,47,47,48,48,49,49,50,50,51,51,52,52,53,53,54,54,55,55,56,56,57,57,61,61,62,62],"right_children":[2,4,6,8,10,12,14,16,18,20,22,24,26,28,30,32,34,36,38,40,42,44,46,48,50,52,54,56,58,60,62,64,66,68,70,72,74,76,78,80,82,84,86,88,90,92,94,96,98,100,102,104,106,108,110,112,114,116,-1,-1,-1,118,120,-1,-1,-1,-1,-1,-1,-1,-1,-1,-1,-1,-1,-1,-1,-1,-1,-1,-1,-1,-1,-1,-1,-1,-1,-1,-1,-1,-1,-1,-1,-1,-1,-1,-1,-1,-1,-1,-1,-1,-1,-1,-1,-1,-1,-1,-1,-1,-1,-1,-1,-1,-1,-1,-1,-1,-1,-1,-1],"split_conditions":[5.5E-1,1E0,7E-1,4.011358E-1,4.011358E-1,1E0,8.0615973E-1,6.014689E-1,6.086509E-1,6.086509E-1,2.20302E-1,6.071528E-1,6E-1,8E-1,1E0,4.070558E-1,1E0,4E-1,4.6666667E-1,6.014689E-1,6.014689E-1,3.4680945E-1,6.086509E-1,8.0168664E-1,6.086509E-1,6.086509E-1,6.014689E-1,8.0168664E-1,8.666667E-1,9.9806195E-1,8.0168664E-1,2.0795915E-1,6E-1,8E-1,1E0,2.0481695E-1,6E-1,8.0615973E-1,1.6778608E-1,2.0795915E-1,1E0,1.6778608E-1,6E-1,8.020704E-1,1E0,6.071528E-1,1E0,4.2883575E-1,1E0,3.7192586E-1,7.8809893E-1,4.0094125E-1,5.8991945E-1,7.954788E-1,8.0615973E-1,4.070558E-1,1E0,3.9949477E-1,-3.671151E-1,4.276647E-1,6.8190426E-1,8E-1,3.9726543E-1,-3.268082E-1,-1.9641078E-1,7.767625E-1,-1.4114663E-1,5.4392993E-1,1.1264894E-1,-3.6483797E-1,-1.0201506E-1,1.7654072E-1,4.5200726E-1,4.9624065E-1,-3.2833267E-2,2.3714544E-1,3.3570975E-1,-2.1568586E-1,1.849761E-1,-1.0467208E-1,1.6645697E-1,2.628453E-1,-6.8610005E-2,-7.827741E-3,2.5958547E-1,3.5581157E-1,2.8648067E-1,1.6585633E-2,2.619302E-1,2.9079488E-1,8.066564E-2,2.7592802E-1,3.3692363E-1,3.578133E-1,3.0719143E-1,-3.6255294E-1,-3.2443455E-1,4.7091734E-1,-2.8377697E-1,8.382148E-2,-2.546657E-1,2.0570703E-1,-1.7606544E-1,-1.10784836E-1,7.405578E-1,6.152876E-2,2.9985046E-1,-2.2469941E-1,-3.4260654E-1,-1.9932626E-1,1.1795494E-1,-3.6150306E-1,-3.1682807E-1,4.1959876E-1,-2.5842986E-1,-3.0849046E-1,-3.563271E-1,-2.52039E-1,-3.5297275E-1,1.0075422E-1,-2.4364565E-1],"split_indices":[1,9,1,3,3,9,11,4,11,11,11,3,7,1,11,11,7,6,1,4,4,10,11,4,11,11,4,4,1,4,4,3,11,4,14,6,3,11,10,3,7,10,7,3,6,3,6,10,4,6,6,7,10,7,11,11,4,7,0,0,0,1,7,0,0,0,0,0,0,0,0,0,0,0,0,0,0,0,0,0,0,0,0,0,0,0,0,0,0,0,0,0,0,0,0,0,0,0,0,0,0,0,0,0,0,0,0,0,0,0,0,0,0,0,0,0,0,0,0,0,0],"split_type":[0,0,0,0,0,0,0,0,0,0,0,0,0,0,0,0,0,0,0,0,0,0,0,0,0,0,0,0,0,0,0,0,0,0,0,0,0,0,0,0,0,0,0,0,0,0,0,0,0,0,0,0,0,0,0,0,0,0,0,0,0,0,0,0,0,0,0,0,0,0,0,0,0,0,0,0,0,0,0,0,0,0,0,0,0,0,0,0,0,0,0,0,0,0,0,0,0,0,0,0,0,0,0,0,0,0,0,0,0,0,0,0,0,0,0,0,0,0,0,0,0],"sum_hessian":[3.0264566E4,1.6822441E4,1.3442123E4,4.2339575E3,1.2588485E4,4.503698E3,8.938425E3,2.3845964E3,1.849361E3,5.8678525E3,6.7206323E3,2.0588896E3,2.4448088E3,7.1696895E3,1.7687356E3,1.4993303E3,8.8526605E2,8.9239825E2,9.569627E2,2.245474E3,3.6223784E3,5.781345E2,6.142498E3,1.9808035E3,7.8086136E1,1.5265873E3,9.1822144E2,2.3829675E3,4.7867217E3,6.246539E1,1.7062703E3,6.1009436E2,8.8923596E2,7.606174E2,1.2464871E2,2.2085515E2,6.715431E2,7.389308E2,2.1803197E2,1.0717102E3,1.1737639E3,1.5145425E3,2.107836E3,1.0953456E2,4.6859995E2,2.188844E3,3.953654E3,1.6326471E3,3.481564E2,4.8119267E1,2.996687E1,7.188384E2,8.077489E2,4.7866306E2,4.3955835E2,1.8549406E3,5.2802704E2,1.6029711E3,3.1837507E3,3.7320152E1,2.5145235E1,1.357594E3,3.486762E2,4.7686633E2,1.3322804E2,2.7681826E1,8.6155414E2,7.514045E1,6.854769E2,7.745726E1,4.719145E1,1.3992345E2,8.09317E1,3.7381493E1,6.341616E2,3.0060376E2,4.38327E2,2.5795025E1,1.9223694E2,7.4741364E2,3.2429657E2,1.0702517E3,1.0351227E2,1.5042331E2,1.3641191E3,1.4486067E3,6.592292E2,7.308848E1,3.644608E1,4.324986E2,3.6101357E1,6.243714E2,1.5644725E3,3.628498E3,3.2515594E2,7.290162E2,9.036309E2,1.8018515E1,3.301379E2,7.104355E0,4.101491E1,1.9086958E1,1.087991E1,6.997726E2,1.9065802E1,3.391388E2,4.686101E2,1.4840175E2,3.3026132E2,3.27984E2,1.1157435E2,9.8895764E2,8.659829E2,2.1982683E1,5.0604437E2,3.1922223E2,1.2837488E3,4.4521262E2,9.123814E2,1.23539345E2,2.2513687E2],"tree_param":{"num_deleted":"0","num_feature":"15","num_nodes":"121","size_leaf_vector":"1"}},{"base_weights":[-2.2247517E-3,5.6086344E-1,-8.662672E-1,9.053936E-4,7.77294E-1,-1.0966158E0,-6.431273E-1,2.2324544E-1,-5.5716586E-1,5.5847913E-1,9.909684E-1,-1.0992188E0,1.021721E0,-3.7670255E-1,-1.0361009E0,-6.5315425E-1,3.80569E-1,-7.3560476E-1,9.990217E-2,7.178261E-1,-4.539755E-2,6.083032E-1,1.0314021E0,-1.028376E0,-1.1358372E0,-1.3327551E-1,4.388157E-1,-7.999966E-1,1.1117837E-2,-8.7604505E-1,-1.1024264E0,-7.5637347E-1,2.1032953E-1,1.08028E-1,7.622031E-1,-9.135357E-1,-3.7642673E-1,3.854451E-1,-2.3122154E-2,4.6586174E-1,9.281315E-1,-4.678678E-1,4.382028E-1,8.173141E-1,2.4430802E-1,9.133993E-1,1.0828007E0,-7.8852385E-1,-1.0808735E0,-1.108895E0,-3.471055E-1,-1.0460252E0,-4.8849806E-1,-2.9991162E-1,7.134128E-1,-1.0625373E0,-6.2244225E-1,-3.4408018E-1,-1.0044332E0,-2.803176E-1,-1.3197626E-1,3.418879E-1,-4.059057E-2,-3.3926655E-2,2.02206E-1,2.7391297E-1,8.404933E-2,-3.5619575E-1,-2.3965606E-1,-1.7856914E-1,6.349112E-2,-1.6260432E-1,9.562646E-2,2.834873E-2,2.150849E-1,3.1551602E-1,2.0583297E-1,-2.6918405E-1,-2.8671779E-2,1.890345E-1,-9.797468E-2,2.6517275E-1,6.965894E-2,-9.987473E-2,1.7427614E-1,2.865306E-1,1.2252556E-1,3.1334773E-1,3.4122732E-1,-2.6585668E-1,5.5865335E-1,-3.3990845E-1,-2.960907E-1,-2.9819572E-1,-3.4058896E-1,-3.1478578E-1,2.1366124E-1,1.014714E0,-1.6770215E-1,-1.8107823E-1,8.754188E-2,1.870039E-2,3.3222514E-1,-3.256264E-1,-2.1663316E-1,9.0385234E-1,-2.0386405E-1,-3.369211E-1,-2.6143426E-1],"categories":[],"categories_nodes":[],"categories_segments":[],"categories_sizes":[],"default_left":[0,0,0,0,0,0,0,0,0,0,0,0,0,0,0,0,0,0,0,0,0,0,0,0,0,0,0,0,0,0,0,0,0,0,0,0,0,0,0,0,0,0,0,0,0,0,0,0,0,0,0,0,0,0,0,0,0,0,0,0,0,0,0,0,0,0,0,0,0,0,0,0,0,0,0,0,0,0,0,0,0,0,0,0,0,0,0,0,0,0,0,0,0,0,0,0,0,0,0,0,0,0,0,0,0,0,0,0,0],"id":4,"left_children":[1,3,5,7,9,11,13,15,17,19,21,23,25,27,29,31,33,35,37,39,41,43,45,47,49,-1,-1,51,53,55,57,59,61,63,65,67,69,-1,71,73,75,77,79,81,83,85,87,89,91,93,-1,95,97,99,101,103,105,-1,107,-1,-1,-1,-1,-1,-1,-1,-1,-1,-1,-1,-1,-1,-1,-1,-1,-1,-1,-1,-1,-1,-1,-1,-1,-1,-1,-1,-1,-1,-1,-1,-1,-1,-1,-1,-1,-1,-1,-1,-1,-1,-1,-1,-1,-1,-1,-1,-1,-1,-1],"loss_changes":[1.254363E4,1.8917197E3,5.2215625E2,5.401692E2,5.2581396E2,2.8715332E1,5.4084326E2,4.2947272E2,1.4549106E2,5.35469E2,8.748291E1,1.179834E1,4.9551744E0,5.0601605E2,2.1201416E1,4.2419113E1,2.7449777E2,6.1999695E1,3.877112E1,2.3286377E2,2.3774782E2,4.1388535E1,3.0240723E1,2.0727173E1,5.917969E-1,0E0,0E0,1.1243689E2,3.5179965E2,2.8503021E1,5.2701416E0,2.3460083E1,1.666661E1,1.929636E2,7.970203E1,1.9511902E1,4.1926174E1,0E0,4.3058453E1,1.8688663E2,7.102661E1,9.9199326E1,7.984898E1,1.3309067E1,3.9213226E1,3.2644165E1,6.3061523E0,8.227658E1,5.7546387E0,3.331665E0,0E0,5.4628906E0,1.799078E2,2.00757E2,1.26742065E2,1.9734192E0,5.6793823E1,0E0,6.4040833E0,0E0,0E0,0E0,0E0,0E0,0E0,0E0,0E0,0E0,0E0,0E0,0E0,0E0,0E0,0E0,0E0,0E0,0E0,0E0,0E0,0E0,0E0,0E0,0E0,0E0,0E0,0E0,0E0,0E0,0E0,0E0,0E0,0E0,0E0,0E0,0E0,0E0,0E0,0E0,0E0,0E0,0E0,0E0,0E0,0E0,0E0,0E0,0E0,0E0,0E0],"parents":[2147483647,0,0,1,1,2,2,3,3,4,4,5,5,6,6,7,7,8,8,9,9,10,10,11,11,12,12,13,13,14,14,15,15,16,16,17,17,18,18,19,19,20,20,21,21,22,22,23,23,24,24,27,27,28,28,29,29,30,30,31,31,32,32,33,33,34,34,35,35,36,36,38,38,39,39,40,40,41,41,42,42,43,43,44,44,45,45,46,46,47,47,48,48,49,49,51,51,52,52,53,53,54,54,55,55,56,56,58,58],"right_children":[2,4,6,8,10,12,14,16,18,20,22,24,26,28,30,32,34,36,38,40,42,44,46,48,50,-1,-1,52,54,56,58,60,62,64,66,68,70,-1,72,74,76,78,80,82,84,86,88,90,92,94,-1,96,98,100,102,104,106,-1,108,-1,-1,-1,-1,-1,-1,-1,-1,-1,-1,-1,-1,-1,-1,-1,-1,-1,-1,-1,-1,-1,-1,-1,-1,-1,-1,-1,-1,-1,-1,-1,-1,-1,-1,-1,-1,-1,-1,-1,-1,-1,-1,-1,-1,-1,-1,-1,-1,-1,-1],"split_conditions":[5.833333E-1,1E0,1E0,4.8333332E-1,4.011358E-1,4.011358E-1,8.1666666E-1,1.6778608E-1,6.071528E-1,4.8333332E-1,2.20302E-1,7.3333335E-1,6.166667E-1,6.014689E-1,8.666667E-1,8.020704E-1,1E0,1E0,8E-1,6.014689E-1,6.014689E-1,4.6666667E-1,5.0628436E-1,3.9520475E-1,8.5E-1,-1.3327551E-1,4.388157E-1,6.086509E-1,8.0615973E-1,6.014689E-1,1E0,1E0,1E0,6.071528E-1,4E-1,2.5451744E-1,8.0615973E-1,3.854451E-1,8.020704E-1,5.8991945E-1,6E-1,5.8991945E-1,7.878571E-1,1E0,6.071528E-1,1E0,8.020704E-1,2.0033292E-1,6.086509E-1,3.9949477E-1,-3.471055E-1,2.0795915E-1,7.9631263E-1,7.5088716E-1,5.0628436E-1,9.218519E-1,7.9687834E-1,-3.4408018E-1,5.0628436E-1,-2.803176E-1,-1.3197626E-1,3.418879E-1,-4.059057E-2,-3.3926655E-2,2.02206E-1,2.7391297E-1,8.404933E-2,-3.5619575E-1,-2.3965606E-1,-1.7856914E-1,6.349112E-2,-1.6260432E-1,9.562646E-2,2.834873E-2,2.150849E-1,3.1551602E-1,2.0583297E-1,-2.6918405E-1,-2.8671779E-2,1.890345E-1,-9.797468E-2,2.6517275E-1,6.965894E-2,-9.987473E-2,1.7427614E-1,2.865306E-1,1.2252556E-1,3.1334773E-1,3.4122732E-1,-2.6585668E-1,5.5865335E-1,-3.3990845E-1,-2.960907E-1,-2.9819572E-1,-3.4058896E-1,-3.1478578E-1,2.1366124E-1,1.014714E0,-1.6770215E-1,-1.8107823E-1,8.754188E-2,1.870039E-2,3.3222514E-1,-3.256264E-1,-2.1663316E-1,9.0385234E-1,-2.0386405E-1,-3.369211E-1,-2.6143426E-1],"split_indices":[1,9,9,1,3,3,1,10,3,1,11,1,1,4,1,3,14,14,3,4,4,1,10,7,1,0,0,11,11,4,14,14,3,3,7,10,11,0,3,10,7,10,7,6,3,6,3,7,11,7,0,3,11,10,10,10,4,0,10,0,0,0,0,0,0,0,0,0,0,0,0,0,0,0,0,0,0,0,0,0,0,0,0,0,0,0,0,0,0,0,0,0,0,0,0,0,0,0,0,0,0,0,0,0,0,0,0,0,0],"split_type":[0,0,0,0,0,0,0,0,0,0,0,0,0,0,0,0,0,0,0,0,0,0,0,0,0,0,0,0,0,0,0,0,0,0,0,0,0,0,0,0,0,0,0,0,0,0,0,0,0,0,0,0,0,0,0,0,0,0,0,0,0,0,0,0,0,0,0,0,0,0,0,0,0,0,0,0,0,0,0,0,0,0,0,0,0,0,0,0,0,0,0,0,0,0,0,0,0,0,0,0,0,0,0,0,0,0,0,0,0],"sum_hessian":[2.5779713E4,1.560829E4,1.0171422E4,4.3513364E3,1.1256954E4,5.002942E3,5.1684805E3,3.112065E3,1.2392716E3,5.5633647E3,5.6935894E3,4.997282E3,5.6595807E0,3.0813633E3,2.087117E3,4.7314917E2,2.6389158E3,9.745068E2,2.6476477E2,4.4016875E3,1.1616772E3,5.4564545E2,5.147944E3,1.7127799E3,3.2845024E3,1.3071043E0,4.352476E0,1.4727926E3,1.6085708E3,6.1564923E2,1.4714678E3,4.2273972E2,5.040946E1,1.5402449E3,1.0986708E3,6.5064465E2,3.2386215E2,2.4015427E1,2.4074933E2,2.00397E3,2.3977178E3,6.200435E2,5.4163367E2,3.4582358E2,1.9982188E2,1.5676465E3,3.5802974E3,3.1044196E2,1.4023379E3,1.4691251E3,1.8153772E3,8.215533E2,6.5123926E2,1.1152338E3,4.9333704E2,3.5292694E2,2.627223E2,1.00452075E3,4.66947E2,2.6929608E2,1.534436E2,1.3043164E1,3.736629E1,1.1081304E3,4.3211456E2,8.36133E2,2.625378E2,1.8932112E2,4.6132352E2,2.3602937E2,8.783279E1,9.538738E1,1.4536195E2,8.0892456E2,1.1950454E3,1.5849941E3,8.1272363E2,2.8727963E2,3.3276392E2,4.331234E2,1.0851022E2,3.1002722E2,3.5796352E1,7.360862E1,1.26213264E2,1.4472382E3,1.204083E2,2.116258E3,1.4640391E3,3.0005222E2,1.0389736E1,8.944784E2,5.078595E2,2.817019E2,1.1874232E3,8.20435E2,1.1183031E0,1.0810007E1,6.4042926E2,7.369797E2,3.7825406E2,1.8642859E2,3.0690845E2,3.2864648E2,2.428046E1,3.2626348E0,2.5945966E2,2.4285242E2,2.2409459E2],"tree_param":{"num_deleted":"0","num_feature":"15","num_nodes":"109","size_leaf_vector":"1"}},{"base_weights":[-3.4372718E-3,4.6475956E-1,-7.680172E-1,8.015328E-4,6.6379243E-1,-1.0273591E0,-5.413286E-1,-4.4984195E-1,2.2765356E-1,2.830379E-1,7.95304E-1,-1.0301046E0,7.766605E-1,-3.0064604E-1,-9.452149E-1,-6.3298297E-1,7.900753E-2,1.5448607E0,1.3484205E-1,4.424115E-2,7.922543E-1,6.2409997E-1,9.795969E-1,-1.0625225E0,-8.983243E-1,1.1313711E0,-1.06604904E-1,2.261393E-2,-7.0094705E-1,-1.0112813E0,-7.086516E-1,-8.6815584E-1,-4.392181E-1,4.0210524E-1,-5.7002675E-2,1.7565904E0,3.6588153E-1,-4.7334763E-1,3.2752243E-1,-8.0040073E-1,1.7997594E-1,8.47436E-1,2.0304562E-1,3.0650398E-1,7.991458E-1,8.6578816E-1,1.0370262E0,-1.0065362E0,-3.275901E-1,4.0899518E-1,-9.457404E-1,1.3372955E-1,4.2908654E-1,-7.419521E-2,2.1280189E0,-9.1576636E-1,-4.7712776E-1,-9.0707135E-1,-3.202466E-1,4.934624E-1,-8.0057067E-1,-1.6800666E-1,-3.0337042E-1,8.01209E-1,-2.2984123E-1,2.9507434E-2,-2.786519E-1,5.122903E-1,8.428512E-1,-2.4835041E-1,-6.6806175E-2,4.2547664E-1,5.7966188E-2,-1.287164E-1,-3.0151883E-1,1.5151325E-1,-2.2119345E-2,1.9522248E-1,2.9175234E-1,-1.9447713E-1,1.1669108E-1,8.0303205E-3,2.1588472E-1,1.4101586E-1,2.740578E-1,1.8728259E-1,2.9064497E-1,2.18193E-1,3.1370124E-1,-3.1134787E-1,-2.5589058E-1,-2.0778155E-1,-3.0917564E-1,-1.7289147E-1,8.826238E-2,7.3875284E-1,5.6776947E-1,-3.2761818E-1,-2.4694906E-1,-2.3586325E-1,-3.5506926E-2,-1.9160348E-1,-2.9608974E-1,-3.0815908E-1,-1.4129919E-1],"categories":[],"categories_nodes":[],"categories_segments":[],"categories_sizes":[],"default_left":[0,0,0,0,0,0,0,0,0,0,0,0,0,0,0,0,0,0,0,0,0,0,0,0,0,0,0,0,0,0,0,0,0,0,0,0,0,0,0,0,0,0,0,0,0,0,0,0,0,0,0,0,0,0,0,0,0,0,0,0,0,0,0,0,0,0,0,0,0,0,0,0,0,0,0,0,0,0,0,0,0,0,0,0,0,0,0,0,0,0,0,0,0,0,0,0,0,0,0,0,0,0,0,0,0],"id":5,"left_children":[1,3,5,7,9,11,13,15,17,19,21,23,25,27,29,31,33,35,37,39,41,43,45,47,49,51,-1,53,55,57,59,61,63,-1,65,67,-1,69,71,73,75,77,79,81,83,85,87,89,-1,-1,91,-1,-1,93,95,97,99,101,-1,-1,103,-1,-1,-1,-1,-1,-1,-1,-1,-1,-1,-1,-1,-1,-1,-1,-1,-1,-1,-1,-1,-1,-1,-1,-1,-1,-1,-1,-1,-1,-1,-1,-1,-1,-1,-1,-1,-1,-1,-1,-1,-1,-1,-1,-1],"loss_changes":[7.923593E3,1.2676887E3,4.9366064E2,4.2151535E2,4.8082422E2,2.0213379E1,4.3596277E2,1.3376855E2,3.3508112E2,3.000559E2,2.246665E2,1.5767578E1,3.0225744E0,3.640847E2,2.546582E1,4.6353638E1,6.115318E1,1.0283264E1,3.0052423E2,1.928756E2,2.5441742E1,2.0568481E2,2.1564941E1,4.0703125E0,8.4855835E1,4.2979813E-1,0E0,3.1761032E2,6.0000122E1,6.6884766E0,8.11579E1,1.9814117E1,5.7579443E2,0E0,4.374992E1,7.187195E-1,0E0,5.4646927E1,2.8495123E2,1.7271713E1,1.195517E2,1.7080017E1,1.1137961E1,1.5226808E2,8.943591E1,2.8226074E1,5.3413086E0,4.369751E0,0E0,0E0,1.5691589E1,0E0,0E0,2.757868E2,7.3446655E-1,9.554199E0,6.840248E1,9.333679E0,0E0,0E0,2.6095673E1,0E0,0E0,0E0,0E0,0E0,0E0,0E0,0E0,0E0,0E0,0E0,0E0,0E0,0E0,0E0,0E0,0E0,0E0,0E0,0E0,0E0,0E0,0E0,0E0,0E0,0E0,0E0,0E0,0E0,0E0,0E0,0E0,0E0,0E0,0E0,0E0,0E0,0E0,0E0,0E0,0E0,0E0,0E0,0E0],"parents":[2147483647,0,0,1,1,2,2,3,3,4,4,5,5,6,6,7,7,8,8,9,9,10,10,11,11,12,12,13,13,14,14,15,15,16,16,17,17,18,18,19,19,20,20,21,21,22,22,23,23,24,24,25,25,27,27,28,28,29,29,30,30,31,31,32,32,34,34,35,35,37,37,38,38,39,39,40,40,41,41,42,42,43,43,44,44,45,45,46,46,47,47,50,50,53,53,54,54,55,55,56,56,57,57,60,60],"right_children":[2,4,6,8,10,12,14,16,18,20,22,24,26,28,30,32,34,36,38,40,42,44,46,48,50,52,-1,54,56,58,60,62,64,-1,66,68,-1,70,72,74,76,78,80,82,84,86,88,90,-1,-1,92,-1,-1,94,96,98,100,102,-1,-1,104,-1,-1,-1,-1,-1,-1,-1,-1,-1,-1,-1,-1,-1,-1,-1,-1,-1,-1,-1,-1,-1,-1,-1,-1,-1,-1,-1,-1,-1,-1,-1,-1,-1,-1,-1,-1,-1,-1,-1,-1,-1,-1,-1,-1],"split_conditions":[5.833333E-1,1E0,1E0,4.070558E-1,4.070558E-1,4.011358E-1,8.1666666E-1,6.071528E-1,6E-1,6.071528E-1,4.011358E-1,8.0168664E-1,7.1642387E-1,6E-1,8.0615973E-1,2.20302E-1,8E-1,6.071528E-1,6.086509E-1,1.6778608E-1,5.3333336E-1,4.0472737E-1,6.071528E-1,7.3333335E-1,1E0,6.666667E-1,-1.06604904E-1,4.0094125E-1,5.0628436E-1,8.833333E-1,1E0,2E0,4E-1,4.0210524E-1,1E0,5.5E-1,3.6588153E-1,5.0628436E-1,8E-1,3.9969274E-1,4E-1,5.8991945E-1,5.3550446E-1,2.0795915E-1,4.2883575E-1,5.0628436E-1,3.0652087E-2,8.0615973E-1,-3.275901E-1,4.0899518E-1,3.9726543E-1,1.3372955E-1,4.2908654E-1,6.014689E-1,8E-1,1.0651096E-1,6.086509E-1,3.9949477E-1,-3.202466E-1,4.934624E-1,6.014689E-1,-1.6800666E-1,-3.0337042E-1,8.01209E-1,-2.2984123E-1,2.9507434E-2,-2.786519E-1,5.122903E-1,8.428512E-1,-2.4835041E-1,-6.6806175E-2,4.2547664E-1,5.7966188E-2,-1.287164E-1,-3.0151883E-1,1.5151325E-1,-2.2119345E-2,1.9522248E-1,2.9175234E-1,-1.9447713E-1,1.1669108E-1,8.0303205E-3,2.1588472E-1,1.4101586E-1,2.740578E-1,1.8728259E-1,2.9064497E-1,2.18193E-1,3.1370124E-1,-3.1134787E-1,-2.5589058E-1,-2.0778155E-1,-3.0917564E-1,-1.7289147E-1,8.826238E-2,7.3875284E-1,5.6776947E-1,-3.2761818E-1,-2.4694906E-1,-2.3586325E-1,-3.5506926E-2,-1.9160348E-1,-2.9608974E-1,-3.0815908E-1,-1.4129919E-1],"split_indices":[1,9,9,11,11,3,1,3,11,3,3,4,5,7,11,11,3,3,11,10,1,4,3,1,4,1,0,7,10,1,11,8,11,0,6,1,0,10,11,1,1,10,1,3,10,10,10,11,0,0,7,0,0,4,4,10,11,7,0,0,4,0,0,0,0,0,0,0,0,0,0,0,0,0,0,0,0,0,0,0,0,0,0,0,0,0,0,0,0,0,0,0,0,0,0,0,0,0,0,0,0,0,0,0,0],"split_type":[0,0,0,0,0,0,0,0,0,0,0,0,0,0,0,0,0,0,0,0,0,0,0,0,0,0,0,0,0,0,0,0,0,0,0,0,0,0,0,0,0,0,0,0,0,0,0,0,0,0,0,0,0,0,0,0,0,0,0,0,0,0,0,0,0,0,0,0,0,0,0,0,0,0,0,0,0,0,0,0,0,0,0,0,0,0,0,0,0,0,0,0,0,0,0,0,0,0,0,0,0,0,0,0,0],"sum_hessian":[2.2132559E4,1.3727067E4,8.405491E3,4.121229E3,9.605838E3,3.9187417E3,4.4867495E3,1.3796198E3,2.7416094E3,2.4668691E3,7.1389688E3,3.9132153E3,5.5262914E0,2.8124866E3,1.6742628E3,1.0246023E3,3.5501752E2,1.7943085E2,2.5621787E3,1.6800823E3,7.8678687E2,3.7031812E3,3.4357876E3,3.1349543E3,7.7826086E2,4.2082257E0,1.3180658E0,1.5564949E3,1.2559918E3,1.3061989E3,3.680639E2,4.6127325E2,5.63329E2,3.3693455E1,3.2132407E2,1.0601697E2,7.341388E1,6.16081E2,1.9460975E3,2.3193224E2,1.44815E3,7.190104E2,6.777644E1,1.3167944E3,2.3863867E3,1.157675E3,2.2781125E3,1.0926173E3,2.0423372E3,1.541156E1,7.628493E2,2.0340745E0,2.1741512E0,1.4889938E3,6.750103E1,6.3930365E2,6.166882E2,4.6367404E2,8.4252484E2,1.3199694E1,3.548642E2,1.4782733E2,3.1344592E2,5.290316E1,5.1042584E2,2.734777E2,4.7846367E1,1.0381196E2,2.2050085E0,2.5423544E2,3.6184555E2,2.1230457E2,1.733793E3,8.350825E1,1.48424E2,6.343647E2,8.137854E2,2.818931E2,4.371173E2,1.1703297E1,5.607315E1,7.857757E2,5.3101874E2,6.168124E2,1.7695743E3,3.482913E2,8.093837E2,6.417025E1,2.2139424E3,9.0289215E2,1.8972514E2,1.9380255E2,5.6904675E2,6.29907E2,8.590868E2,2.3978355E1,4.352268E1,2.1644673E2,4.2285693E2,3.306448E2,2.8604337E2,1.0842631E2,3.5524774E2,2.0901878E2,1.4584541E2],"tree_param":{"num_deleted":"0","num_feature":"15","num_nodes":"105","size_leaf_vector":"1"}},{"base_weights":[-4.3346114E-3,4.7345048E-1,-5.6784904E-1,5.885852E-1,-7.6171204E-2,-1.5976818E-1,-7.865315E-1,3.448841E-1,7.9172033E-1,-3.8010153E-1,4.4039223E-1,-2.6686043E-1,1.6798452E0,-9.956539E-1,-6.08956E-1,-1.6552418E-2,5.230447E-1,5.167371E-1,8.9598876E-1,5.6421928E-2,-6.685007E-1,1.2794034E0,1.6498742E-1,-6.9968843E-1,-1.6883379E-2,1.5193634E0,2.1237555E0,-9.026019E-1,-1.0486141E0,-3.489984E-1,-8.568372E-1,1.5416694E-1,-4.304702E-1,3.52959E-1,8.17832E-1,4.069302E-2,6.707692E-1,6.289058E-1,9.2825156E-1,-4.7239146E-1,2.785879E-1,-1.0043092E0,-4.274221E-1,4.4435242E-1,3.5494092E-1,-2.0159255E-1,5.2483165E-1,-5.1363134E-1,-9.9418885E-1,-4.5343944E-1,2.7919433E-1,5.553376E-1,4.2819986E-1,7.743749E-1,5.286892E-1,-1.0026231E0,-7.4804014E-1,-3.1685022E-1,-9.3366617E-1,-5.534593E-1,1.05437286E-1,-9.377686E-1,-5.876076E-1,2.3649503E-2,4.5078856E-1,-1.940593E-1,-1.454373E-2,3.3954326E-2,1.9632408E-1,1.6418462E-1,2.671989E-1,5.0389133E-2,-3.0850247E-1,2.54425E-1,1.074202E-1,2.2099651E-1,5.2148197E-2,2.849288E-1,1.8600395E-1,3.1144423E-2,-2.505599E-1,-6.1688513E-2,1.5175605E-1,-3.0498105E-1,3.2648122E-1,-5.3571574E-2,-2.8491408E-1,4.7277886E-2,-1.8389907E-1,-2.9117651E-2,2.2600244E-1,-2.028786E-1,1.9624813E-2,1.291019E-1,-2.9976222E-1,-1.7934743E-1,1.2700397E-1,-1.1460723E-2,2.1220683E-1,-2.675562E-1,-3.1277838E-1,8.04998E-1,-2.4602179E-1,5.8745617E-1,-2.9898438E-1,-2.2463156E-1,-2.6331205E-2,4.668481E-1,-3.9274685E-2,-2.9824692E-1,-2.1975228E-1,4.1899943E-1,-2.0188321E-1],"categories":[],"categories_nodes":[],"categories_segments":[],"categories_sizes":[],"default_left":[0,0,0,0,0,0,0,0,0,0,0,0,0,0,0,0,0,0,0,0,0,0,0,0,0,0,0,0,0,0,0,0,0,0,0,0,0,0,0,0,0,0,0,0,0,0,0,0,0,0,0,0,0,0,0,0,0,0,0,0,0,0,0,0,0,0,0,0,0,0,0,0,0,0,0,0,0,0,0,0,0,0,0,0,0,0,0,0,0,0,0,0,0,0,0,0,0,0,0,0,0,0,0,0,0,0,0,0,0,0,0,0,0],"id":6,"left_children":[1,3,5,7,9,11,13,15,17,19,21,23,25,27,29,31,33,35,37,39,41,43,45,47,49,51,53,55,57,59,61,63,65,67,69,71,73,75,77,79,81,83,85,-1,-1,87,89,91,93,95,97,-1,-1,-1,-1,99,101,-1,103,105,107,109,111,-1,-1,-1,-1,-1,-1,-1,-1,-1,-1,-1,-1,-1,-1,-1,-1,-1,-1,-1,-1,-1,-1,-1,-1,-1,-1,-1,-1,-1,-1,-1,-1,-1,-1,-1,-1,-1,-1,-1,-1,-1,-1,-1,-1,-1,-1,-1,-1,-1,-1],"loss_changes":[5.161742E3,6.565813E2,7.848855E2,4.243838E2,2.824238E2,6.053544E2,2.1207153E2,2.512395E2,1.3365625E2,1.4259915E2,1.5377667E2,3.1402045E2,8.816193E0,1.2006592E1,1.9944531E2,9.116143E1,1.3074219E2,9.444702E1,2.8629883E1,5.316761E1,5.4780518E1,1.4436646E0,6.644087E1,5.7710938E1,2.3806523E2,1.256073E0,2.4581146E0,1.4099304E1,4.6276855E-1,1.4079683E2,3.400757E1,9.267401E1,3.1107101E1,1.1983809E2,1.8338135E1,4.31718E1,5.3666534E1,1.7941025E1,1.9453857E1,2.8082966E1,3.5154728E1,8.41922E0,5.1652863E1,0E0,0E0,3.701387E1,3.6175133E1,6.1560028E1,3.3633728E0,9.448044E1,1.491785E2,0E0,0E0,0E0,0E0,1.6390991E0,9.644954E1,0E0,2.2252388E1,9.496796E1,1.6165593E2,1.3366821E1,6.346615E1,0E0,0E0,0E0,0E0,0E0,0E0,0E0,0E0,0E0,0E0,0E0,0E0,0E0,0E0,0E0,0E0,0E0,0E0,0E0,0E0,0E0,0E0,0E0,0E0,0E0,0E0,0E0,0E0,0E0,0E0,0E0,0E0,0E0,0E0,0E0,0E0,0E0,0E0,0E0,0E0,0E0,0E0,0E0,0E0,0E0,0E0,0E0,0E0,0E0,0E0],"parents":[2147483647,0,0,1,1,2,2,3,3,4,4,5,5,6,6,7,7,8,8,9,9,10,10,11,11,12,12,13,13,14,14,15,15,16,16,17,17,18,18,19,19,20,20,21,21,22,22,23,23,24,24,25,25,26,26,27,27,28,28,29,29,30,30,31,31,32,32,33,33,34,34,35,35,36,36,37,37,38,38,39,39,40,40,41,41,42,42,45,45,46,46,47,47,48,48,49,49,50,50,55,55,56,56,58,58,59,59,60,60,61,61,62,62],"right_children":[2,4,6,8,10,12,14,16,18,20,22,24,26,28,30,32,34,36,38,40,42,44,46,48,50,52,54,56,58,60,62,64,66,68,70,72,74,76,78,80,82,84,86,-1,-1,88,90,92,94,96,98,-1,-1,-1,-1,100,102,-1,104,106,108,110,112,-1,-1,-1,-1,-1,-1,-1,-1,-1,-1,-1,-1,-1,-1,-1,-1,-1,-1,-1,-1,-1,-1,-1,-1,-1,-1,-1,-1,-1,-1,-1,-1,-1,-1,-1,-1,-1,-1,-1,-1,-1,-1,-1,-1,-1,-1,-1,-1,-1,-1],"split_conditions":[5.1666665E-1,6E-1,4E-1,6.086509E-1,8.0168664E-1,2.0033292E-1,1E0,1E0,1E0,3.6666667E-1,1E0,1E0,7.3333335E-1,7.1666664E-1,7.3333335E-1,8E-1,6.071528E-1,3.4680945E-1,1.6778608E-1,4.070558E-1,1E0,1E0,1E0,7.3333335E-1,5.0628436E-1,1E0,8.0168664E-1,6.014689E-1,9.218519E-1,8.0168664E-1,8.0615973E-1,6.0943747E-1,6.071528E-1,7.5088716E-1,3.4680945E-1,1E0,6E-1,1.6666667E-1,1E0,2E0,1E0,5.006304E-1,1E0,4.4435242E-1,3.5494092E-1,3.8333333E-1,4.2883575E-1,8.0615973E-1,1E0,6.071528E-1,1E0,5.553376E-1,4.2819986E-1,7.743749E-1,5.286892E-1,6E-1,8E-1,-3.1685022E-1,1E0,8.0615973E-1,1E0,8.0168664E-1,1E0,2.3649503E-2,4.5078856E-1,-1.940593E-1,-1.454373E-2,3.3954326E-2,1.9632408E-1,1.6418462E-1,2.671989E-1,5.0389133E-2,-3.0850247E-1,2.54425E-1,1.074202E-1,2.2099651E-1,5.2148197E-2,2.849288E-1,1.8600395E-1,3.1144423E-2,-2.505599E-1,-6.1688513E-2,1.5175605E-1,-3.0498105E-1,3.2648122E-1,-5.3571574E-2,-2.8491408E-1,4.7277886E-2,-1.8389907E-1,-2.9117651E-2,2.2600244E-1,-2.028786E-1,1.9624813E-2,1.291019E-1,-2.9976222E-1,-1.7934743E-1,1.2700397E-1,-1.1460723E-2,2.1220683E-1,-2.675562E-1,-3.1277838E-1,8.04998E-1,-2.4602179E-1,5.8745617E-1,-2.9898438E-1,-2.2463156E-1,-2.6331205E-2,4.668481E-1,-3.9274685E-2,-2.9824692E-1,-2.1975228E-1,4.1899943E-1,-2.0188321E-1],"split_indices":[1,7,7,11,4,7,9,9,9,1,4,9,1,1,1,6,3,10,10,11,9,9,14,1,10,9,4,4,10,4,11,6,3,10,10,6,6,10,6,8,9,1,7,0,0,1,10,11,2,3,14,0,0,0,0,7,4,0,10,11,4,4,11,0,0,0,0,0,0,0,0,0,0,0,0,0,0,0,0,0,0,0,0,0,0,0,0,0,0,0,0,0,0,0,0,0,0,0,0,0,0,0,0,0,0,0,0,0,0,0,0,0,0],"split_type":[0,0,0,0,0,0,0,0,0,0,0,0,0,0,0,0,0,0,0,0,0,0,0,0,0,0,0,0,0,0,0,0,0,0,0,0,0,0,0,0,0,0,0,0,0,0,0,0,0,0,0,0,0,0,0,0,0,0,0,0,0,0,0,0,0,0,0,0,0,0,0,0,0,0,0,0,0,0,0,0,0,0,0,0,0,0,0,0,0,0,0,0,0,0,0,0,0,0,0,0,0,0,0,0,0,0,0,0,0,0,0,0,0],"sum_hessian":[1.9169617E4,1.0374005E4,8.795612E3,8.577185E3,1.7968195E3,3.0694592E3,5.726153E3,3.9004797E3,4.676705E3,1.1314012E3,6.654182E2,2.90141E3,1.680493E2,2.6273906E3,3.0987622E3,1.2881339E3,2.612346E3,1.2874136E3,3.3892917E3,4.5043042E2,6.809709E2,1.6354338E2,5.0187482E2,1.0615565E3,1.8398534E3,1.2667619E2,4.1373116E1,9.595278E2,1.6678628E3,1.5137123E3,1.58505E3,9.124314E2,3.7570248E2,1.6579457E3,9.544002E2,3.1503763E2,9.723759E2,3.6749854E2,3.0217932E3,1.3291989E2,3.1751053E2,2.832518E2,3.977191E2,4.817817E1,1.1536521E2,2.4882845E2,2.5304636E2,6.522361E2,4.0932043E2,7.433212E2,1.0965322E3,2.3358131E1,1.0331806E2,1.55501795E1,2.5822935E1,5.79215E2,3.8031274E2,1.5573427E3,1.1052018E2,1.043845E3,4.698673E2,1.2167943E3,3.6825574E2,8.651557E2,4.727568E1,2.3939453E2,1.3630797E2,9.242053E2,7.3374036E2,2.0423378E2,7.5016644E2,2.822751E2,3.2762543E1,6.194256E2,3.5295032E2,2.9664337E2,7.085519E1,2.8227227E3,1.9907048E2,5.163224E1,8.128765E1,1.0145143E2,2.1605911E2,2.8210855E2,1.1432494E0,2.7028256E2,1.2743653E2,1.331745E2,1.1565395E2,6.8150276E1,1.8489609E2,5.0908667E2,1.4314943E2,1.139404E0,4.0818103E2,6.384948E2,1.0482637E2,6.302431E2,4.6628912E2,1.5977061E2,4.194444E2,7.074151E0,3.732386E2,1.7130839E0,1.088071E2,7.349815E2,3.088635E2,6.504431E1,4.04823E2,9.5154834E2,2.6524594E2,1.4550711E1,3.5370505E2],"tree_param":{"num_deleted":"0","num_feature":"15","num_nodes":"113","size_leaf_vector":"1"}},{"base_weights":[-4.060765E-3,2.8466526E-1,-6.663675E-1,1.1294775E-1,6.538224E-1,-9.3836486E-1,-4.6972698E-1,-1.2270982E-1,4.5322475E-1,1.1972336E0,4.82019E-1,-7.6393956E-1,-9.859065E-1,-2.9251987E-1,-8.877852E-1,-3.1549263E-1,3.9348635E-1,1.0596112E-1,6.3651216E-1,1.1741354E0,4.8694497E-1,8.926244E-3,6.6892886E-1,-8.2805496E-1,5.9525937E-1,-9.0837246E-1,-1.0242237E0,-7.5538194E-1,-5.998356E-2,-9.691382E-1,-7.207907E-1,-7.78411E-1,-1.8375666E-1,1.2364296E0,2.0110758E-1,4.2316547E-1,3.0231385E-2,5.0551486E-1,8.7201554E-1,1.2834444E0,3.358026E-1,-3.5028952E-1,4.6807733E-1,7.5113803E-1,5.3970374E-2,-6.3289875E-1,-1.0056499E0,-9.843804E-1,-7.8054655E-1,-3.0954257E-1,-9.0778387E-1,-9.1500807E-1,-3.9667666E-1,2.7100253E0,-1.2846623E-1,-7.2113883E-1,-1.0079961E0,-9.261675E-1,-4.6745998E-1,-2.6341784E-1,-9.7395495E-2,-1.1886243E-1,5.023095E-2,3.5863012E-1,4.3426302E-1,1.5201916E-1,-6.813859E-2,1.7835496E-1,-4.3222018E-2,4.49886E-2,1.9161743E-1,3.251826E-1,2.3649874E-1,4.0390593E-1,3.442458E-1,-1.5568201E-1,1.2286355E-1,1.9744252E-1,-7.3914275E-2,1.7271909E-1,2.6019973E-1,1.6930956E-1,-1.01748474E-1,-2.3979212E-1,-5.575194E-2,-2.4698636E-1,-3.1201524E-1,-2.9996434E-1,-2.1876116E-1,1.6795874E0,-2.5513795E-1,3.385179E-1,-2.8761047E-1,-2.5057876E-1,-2.9642776E-1,4.182363E-1,-1.6024086E-1,1.6594537E0,6.620264E-1,-1.2846947E-1,9.447541E-2,-2.9213116E-1,-1.5454055E-1,-3.119225E-1,-2.6386252E-1,-2.918467E-1,-2.0846769E-1,-2.6390806E-1,-3.217889E-2],"categories":[],"categories_nodes":[],"categories_segments":[],"categories_sizes":[],"default_left":[0,0,0,0,0,0,0,0,0,0,0,0,0,0,0,0,0,0,0,0,0,0,0,0,0,0,0,0,0,0,0,0,0,0,0,0,0,0,0,0,0,0,0,0,0,0,0,0,0,0,0,0,0,0,0,0,0,0,0,0,0,0,0,0,0,0,0,0,0,0,0,0,0,0,0,0,0,0,0,0,0,0,0,0,0,0,0,0,0,0,0,0,0,0,0,0,0,0,0,0,0,0,0,0,0,0,0,0,0],"id":7,"left_children":[1,3,5,7,9,11,13,15,17,19,21,23,25,27,29,31,33,35,37,39,-1,41,43,45,-1,47,49,51,53,55,57,59,61,63,65,-1,67,69,71,73,-1,75,77,79,81,83,85,87,89,-1,91,93,95,97,99,101,103,105,107,-1,-1,-1,-1,-1,-1,-1,-1,-1,-1,-1,-1,-1,-1,-1,-1,-1,-1,-1,-1,-1,-1,-1,-1,-1,-1,-1,-1,-1,-1,-1,-1,-1,-1,-1,-1,-1,-1,-1,-1,-1,-1,-1,-1,-1,-1,-1,-1,-1,-1],"loss_changes":[3.2157646E3,7.4231104E2,2.72625E2,6.4111395E2,3.465249E2,1.700293E1,2.1940894E2,4.70233E2,2.0814758E2,6.873535E0,2.4992767E2,8.323242E1,4.0583496E0,2.2425491E2,1.1286865E1,2.0964255E2,2.0813142E2,1.1172781E2,6.560889E1,3.6551514E0,0E0,1.3235234E2,1.0238544E2,1.5070984E1,0E0,4.71344E0,4.8828125E-2,3.9533325E1,2.6368225E2,4.961853E0,1.4806091E1,3.4159973E1,1.9997173E2,3.343811E-1,1.3719962E2,0E0,1.0535538E2,6.5175934E1,1.2692993E1,8.245239E-1,0E0,5.7908928E1,4.7991577E1,3.5922913E1,4.834467E1,1.6115845E1,6.2164307E-1,6.552429E-1,1.0074762E2,0E0,9.019924E0,1.9804993E0,5.4000416E1,3.5414978E1,1.8031476E2,3.8429222E0,1.1564331E0,1.0584106E0,1.9677727E1,0E0,0E0,0E0,0E0,0E0,0E0,0E0,0E0,0E0,0E0,0E0,0E0,0E0,0E0,0E0,0E0,0E0,0E0,0E0,0E0,0E0,0E0,0E0,0E0,0E0,0E0,0E0,0E0,0E0,0E0,0E0,0E0,0E0,0E0,0E0,0E0,0E0,0E0,0E0,0E0,0E0,0E0,0E0,0E0,0E0,0E0,0E0,0E0,0E0,0E0],"parents":[2147483647,0,0,1,1,2,2,3,3,4,4,5,5,6,6,7,7,8,8,9,9,10,10,11,11,12,12,13,13,14,14,15,15,16,16,17,17,18,18,19,19,21,21,22,22,23,23,25,25,26,26,27,27,28,28,29,29,30,30,31,31,32,32,33,33,34,34,36,36,37,37,38,38,39,39,41,41,42,42,43,43,44,44,45,45,46,46,47,47,48,48,50,50,51,51,52,52,53,53,54,54,55,55,56,56,57,57,58,58],"right_children":[2,4,6,8,10,12,14,16,18,20,22,24,26,28,30,32,34,36,38,40,-1,42,44,46,-1,48,50,52,54,56,58,60,62,64,66,-1,68,70,72,74,-1,76,78,80,82,84,86,88,90,-1,92,94,96,98,100,102,104,106,108,-1,-1,-1,-1,-1,-1,-1,-1,-1,-1,-1,-1,-1,-1,-1,-1,-1,-1,-1,-1,-1,-1,-1,-1,-1,-1,-1,-1,-1,-1,-1,-1,-1,-1,-1,-1,-1,-1,-1,-1,-1,-1,-1,-1,-1,-1,-1,-1,-1,-1],"split_conditions":[6.333333E-1,8.0615973E-1,1E0,4.011358E-1,1E0,3.9949477E-1,8.5E-1,8.0168664E-1,1E0,5.6666666E-1,1E0,2.0033292E-1,7.5E-1,4.070558E-1,1E0,2.5451744E-1,1E0,6E-1,8.020704E-1,1E0,4.8694497E-1,1E0,8E-1,8E-1,5.9525937E-1,6.086509E-1,9.218519E-1,8.0168664E-1,6E-1,8.666667E-1,6.086509E-1,2.0795915E-1,1E0,5.3550446E-1,6E-1,4.2316547E-1,4E-1,4.2883575E-1,1E0,6.071528E-1,3.358026E-1,6.071528E-1,6E-1,5.8991945E-1,3.8333333E-1,8.0168664E-1,8.333333E-1,9.218519E-1,7.9631263E-1,-3.0954257E-1,1E0,7.3333335E-1,1E0,6.014689E-1,1E0,1E0,8.0168664E-1,8.388016E-1,5.0628436E-1,-2.6341784E-1,-9.7395495E-2,-1.1886243E-1,5.023095E-2,3.5863012E-1,4.3426302E-1,1.5201916E-1,-6.813859E-2,1.7835496E-1,-4.3222018E-2,4.49886E-2,1.9161743E-1,3.251826E-1,2.3649874E-1,4.0390593E-1,3.442458E-1,-1.5568201E-1,1.2286355E-1,1.9744252E-1,-7.3914275E-2,1.7271909E-1,2.6019973E-1,1.6930956E-1,-1.01748474E-1,-2.3979212E-1,-5.575194E-2,-2.4698636E-1,-3.1201524E-1,-2.9996434E-1,-2.1876116E-1,1.6795874E0,-2.5513795E-1,3.385179E-1,-2.8761047E-1,-2.5057876E-1,-2.9642776E-1,4.182363E-1,-1.6024086E-1,1.6594537E0,6.620264E-1,-1.2846947E-1,9.447541E-2,-2.9213116E-1,-1.5454055E-1,-3.119225E-1,-2.6386252E-1,-2.918467E-1,-2.0846769E-1,-2.6390806E-1,-3.217889E-2],"split_indices":[1,11,9,3,11,7,1,4,9,1,9,7,1,11,14,10,4,3,3,9,0,14,7,1,0,11,10,4,11,1,11,3,14,1,7,0,6,10,3,3,0,3,7,10,1,4,1,10,11,0,10,1,4,4,14,13,4,10,10,0,0,0,0,0,0,0,0,0,0,0,0,0,0,0,0,0,0,0,0,0,0,0,0,0,0,0,0,0,0,0,0,0,0,0,0,0,0,0,0,0,0,0,0,0,0,0,0,0,0],"split_type":[0,0,0,0,0,0,0,0,0,0,0,0,0,0,0,0,0,0,0,0,0,0,0,0,0,0,0,0,0,0,0,0,0,0,0,0,0,0,0,0,0,0,0,0,0,0,0,0,0,0,0,0,0,0,0,0,0,0,0,0,0,0,0,0,0,0,0,0,0,0,0,0,0,0,0,0,0,0,0,0,0,0,0,0,0,0,0,0,0,0,0,0,0,0,0,0,0,0,0,0,0,0,0,0,0,0,0,0,0],"sum_hessian":[1.6814646E4,1.1710249E4,5.1043965E3,7.9933574E3,3.7168918E3,2.1402224E3,2.964174E3,4.7230596E3,3.2702979E3,8.9141003E2,2.825482E3,4.620554E2,1.678167E3,2.0829502E3,8.8122406E2,3.4390664E3,1.2839929E3,1.1303224E3,2.1399753E3,8.491177E2,4.229233E1,8.004608E2,2.025021E3,4.5220395E2,9.851458E0,5.632174E2,1.1149496E3,6.957719E2,1.3871782E3,5.893251E2,2.9189896E2,7.607817E2,2.6782847E3,2.3757722E2,1.0464156E3,6.104685E1,1.0692756E3,1.3771118E3,7.6286365E2,2.7603146E2,5.7308624E2,4.492378E2,3.5122305E2,1.7860376E3,2.3898335E2,2.176241E2,2.3457983E2,3.4899603E2,2.1422137E2,1.0393837E3,7.556593E1,4.8042773E2,2.1534418E2,3.2537045E1,1.3546411E3,8.247977E1,5.0684534E2,1.5974042E2,1.3215854E2,6.2302606E2,1.377556E2,1.668694E3,1.0095908E3,2.045236E2,3.305363E1,6.105185E2,4.3589716E2,2.5177657E2,8.17499E2,3.759045E2,1.00120734E3,2.1257901E2,5.502846E2,1.8262657E2,9.34049E1,3.6789746E2,8.134033E1,2.7748398E2,7.373907E1,7.140531E2,1.0719845E3,1.0379411E2,1.3518924E2,1.5801749E2,5.9606613E1,4.1185287E1,1.9339455E2,3.2625906E2,2.2736979E1,1.465044E0,2.1275633E2,1.3272802E0,7.4238655E1,2.3568771E2,2.4474004E2,1.4699518E1,2.0064465E2,3.4127896E0,2.9124254E1,8.08238E2,5.464032E2,3.5373127E1,4.7106636E1,4.0071933E2,1.06126015E2,1.3025746E2,2.9482956E1,6.0955147E1,7.120339E1],"tree_param":{"num_deleted":"0","num_feature":"15","num_nodes":"109","size_leaf_vector":"1"}},{"base_weights":[-2.9292486E-3,3.600336E-1,-4.1504222E-1,1.3112988E-1,5.3946143E-1,-1.9843791E-1,-7.388348E-1,-3.832132E-3,5.3178144E-1,4.442771E-2,6.050043E-1,-2.5161704E-1,2.009958E0,-9.4902796E-1,-5.791044E-1,3.2162058E-1,-1.7720306E-1,1.3187295E-1,7.1901774E-1,2.1454372E-1,-4.6203983E-1,4.5366815E-1,7.898818E-1,-4.2196405E-1,1.855932E-1,3.158896E0,1.7785738E0,-1.003737E0,-8.652262E-1,-3.58083E-1,-8.175112E-1,3.9503488E-1,-4.211673E-1,-3.2785636E-1,1.911842E-1,3.3528113E-1,-3.1508155E-2,4.2542517E-1,8.5916924E-1,4.1593298E-1,-3.1204897E-1,-7.7285403E-1,1.8702154E-1,1.3094592E0,3.9834395E-1,8.6404413E-1,5.8617866E-1,-5.8252084E-1,-8.9547776E-2,1.3076203E0,1.4963521E-2,4.6665767E-1,1.3794019E0,1.6442759E0,1.2011575E0,-9.5636255E-1,-3.097577E-1,2.265971E0,-9.032813E-1,-1.6864996E-1,-7.592121E-1,-9.4240975E-1,-6.3816994E-1,7.8086905E-2,2.3666269E-1,-2.787934E-1,-4.012944E-2,-1.050576E-1,4.4263506E-1,3.4214312E-1,-2.5643094E-2,-1.6384242E-1,1.0709464E-1,3.39253E-1,8.7874465E-2,2.6787096E-1,1.4318913E-1,1.5363579E-3,1.8128352E-1,2.9606842E-3,-2.3231693E-1,-9.4609015E-2,-2.9967582E-1,2.0077536E-1,-9.126882E-2,4.6591076E-1,3.6268467E-1,-5.2622575E-2,1.519305E-1,2.7579376E-1,2.0855483E-1,-1.2087352E-1,2.0298548E-1,-4.703386E-1,-1.60831E-1,5.037957E-1,-6.188937E-2,3.439526E-1,4.324147E-1,-7.9864025E-2,1.16912834E-1,3.6396995E-1,5.227662E-1,-3.1819022E-1,-2.702649E-1,3.4093624E-1,9.055577E-1,-2.8494874E-1,-1.9805719E-1,-9.66706E-2,7.0818925E-1,-1.6758992E-1,-2.869797E-1,-2.2777347E-1,-2.9558676E-1,-2.8101215E-1,-8.52941E-2],"categories":[],"categories_nodes":[],"categories_segments":[],"categories_sizes":[],"default_left":[0,0,0,0,0,0,0,0,0,0,0,0,0,0,0,0,0,0,0,0,0,0,0,0,0,0,0,0,0,0,0,0,0,0,0,0,0,0,0,0,0,0,0,0,0,0,0,0,0,0,0,0,0,0,0,0,0,0,0,0,0,0,0,0,0,0,0,0,0,0,0,0,0,0,0,0,0,0,0,0,0,0,0,0,0,0,0,0,0,0,0,0,0,0,0,0,0,0,0,0,0,0,0,0,0,0,0,0,0,0,0,0,0,0,0,0,0],"id":8,"left_children":[1,3,5,7,9,11,13,15,17,19,21,23,25,27,29,31,33,35,37,39,41,43,45,47,49,51,53,55,57,59,61,63,65,67,69,-1,71,73,75,77,79,81,83,85,87,89,91,93,95,97,99,-1,-1,101,-1,103,-1,105,107,109,111,113,115,-1,-1,-1,-1,-1,-1,-1,-1,-1,-1,-1,-1,-1,-1,-1,-1,-1,-1,-1,-1,-1,-1,-1,-1,-1,-1,-1,-1,-1,-1,-1,-1,-1,-1,-1,-1,-1,-1,-1,-1,-1,-1,-1,-1,-1,-1,-1,-1,-1,-1,-1,-1,-1,-1],"loss_changes":[2.2442903E3,3.2758337E2,4.9263257E2,1.8962535E2,1.4506458E2,4.9508008E2,9.399182E1,1.4812361E2,6.607005E1,4.5239437E1,1.1012573E2,3.0641428E2,2.0736572E1,4.6988525E0,8.4151794E1,4.992138E1,9.511892E1,4.561425E1,2.4390076E1,4.179415E1,2.6783813E1,1.0239703E2,2.632544E1,1.5793872E2,2.209029E2,2.8219864E1,1.8760986E1,6.0424805E-3,6.0062164E1,6.319876E1,1.665039E1,4.3886887E1,1.1931749E1,4.9494522E1,1.308273E2,0E0,4.8927086E1,1.8025414E1,4.80719E0,2.2019089E1,1.6268883E1,8.939823E0,1.0523632E1,1.343216E0,1.2680307E2,1.1493042E1,4.295543E1,9.044043E1,1.9969402E2,1.6297607E0,1.05750725E2,0E0,0E0,1.3458557E0,0E0,7.1572876E-1,0E0,1.7812824E0,4.824066E0,2.211539E2,1.0038101E1,2.801178E0,3.3462143E1,0E0,0E0,0E0,0E0,0E0,0E0,0E0,0E0,0E0,0E0,0E0,0E0,0E0,0E0,0E0,0E0,0E0,0E0,0E0,0E0,0E0,0E0,0E0,0E0,0E0,0E0,0E0,0E0,0E0,0E0,0E0,0E0,0E0,0E0,0E0,0E0,0E0,0E0,0E0,0E0,0E0,0E0,0E0,0E0,0E0,0E0,0E0,0E0,0E0,0E0,0E0,0E0,0E0,0E0],"parents":[2147483647,0,0,1,1,2,2,3,3,4,4,5,5,6,6,7,7,8,8,9,9,10,10,11,11,12,12,13,13,14,14,15,15,16,16,17,17,18,18,19,19,20,20,21,21,22,22,23,23,24,24,25,25,26,26,27,27,28,28,29,29,30,30,31,31,32,32,33,33,34,34,36,36,37,37,38,38,39,39,40,40,41,41,42,42,43,43,44,44,45,45,46,46,47,47,48,48,49,49,50,50,53,53,55,55,57,57,58,58,59,59,60,60,61,61,62,62],"right_children":[2,4,6,8,10,12,14,16,18,20,22,24,26,28,30,32,34,36,38,40,42,44,46,48,50,52,54,56,58,60,62,64,66,68,70,-1,72,74,76,78,80,82,84,86,88,90,92,94,96,98,100,-1,-1,102,-1,104,-1,106,108,110,112,114,116,-1,-1,-1,-1,-1,-1,-1,-1,-1,-1,-1,-1,-1,-1,-1,-1,-1,-1,-1,-1,-1,-1,-1,-1,-1,-1,-1,-1,-1,-1,-1,-1,-1,-1,-1,-1,-1,-1,-1,-1,-1,-1,-1,-1,-1,-1,-1,-1,-1,-1,-1,-1,-1,-1],"split_conditions":[5E-1,5.8991945E-1,6E-1,6.071528E-1,2.20302E-1,4.0094125E-1,1E0,2E0,4.070558E-1,4E-1,1E0,8.0615973E-1,1E0,6.014689E-1,7.3333335E-1,1E0,8.0615973E-1,8E-1,1E0,8E-1,8.0168664E-1,4E-1,4E-1,7.5088716E-1,1E0,5.6666666E-1,8.1666666E-1,7.1666664E-1,7.893323E-1,1E0,5.8991945E-1,8.0168664E-1,1E0,4.8562676E-1,1E0,3.3528113E-1,8.020704E-1,8E-1,1E0,1E0,3E0,3.6311802E-1,3.6666667E-1,1E0,4.070558E-1,8E-1,2.083382E-1,5.006304E-1,8.333333E-1,5.833333E-1,1E0,4.6665767E-1,1.3794019E0,5.6666666E-1,1.2011575E0,2.083382E-1,-3.097577E-1,5.6666666E-1,8.388016E-1,8.00807E-1,3E0,7.8333336E-1,6.014689E-1,7.8086905E-2,2.3666269E-1,-2.787934E-1,-4.012944E-2,-1.050576E-1,4.4263506E-1,3.4214312E-1,-2.5643094E-2,-1.6384242E-1,1.0709464E-1,3.39253E-1,8.7874465E-2,2.6787096E-1,1.4318913E-1,1.5363579E-3,1.8128352E-1,2.9606842E-3,-2.3231693E-1,-9.4609015E-2,-2.9967582E-1,2.0077536E-1,-9.126882E-2,4.6591076E-1,3.6268467E-1,-5.2622575E-2,1.519305E-1,2.7579376E-1,2.0855483E-1,-1.2087352E-1,2.0298548E-1,-4.703386E-1,-1.60831E-1,5.037957E-1,-6.188937E-2,3.439526E-1,4.324147E-1,-7.9864025E-2,1.16912834E-1,3.6396995E-1,5.227662E-1,-3.1819022E-1,-2.702649E-1,3.4093624E-1,9.055577E-1,-2.8494874E-1,-1.9805719E-1,-9.66706E-2,7.0818925E-1,-1.6758992E-1,-2.869797E-1,-2.2777347E-1,-2.9558676E-1,-2.8101215E-1,-8.52941E-2],"split_indices":[1,10,7,3,11,7,9,8,11,7,14,11,9,4,1,7,11,3,9,6,4,11,7,10,11,1,1,1,4,7,10,4,9,1,11,0,3,3,6,9,8,1,1,9,11,6,4,1,10,1,14,0,0,1,0,4,0,1,10,7,8,1,4,0,0,0,0,0,0,0,0,0,0,0,0,0,0,0,0,0,0,0,0,0,0,0,0,0,0,0,0,0,0,0,0,0,0,0,0,0,0,0,0,0,0,0,0,0,0,0,0,0,0,0,0,0,0],"split_type":[0,0,0,0,0,0,0,0,0,0,0,0,0,0,0,0,0,0,0,0,0,0,0,0,0,0,0,0,0,0,0,0,0,0,0,0,0,0,0,0,0,0,0,0,0,0,0,0,0,0,0,0,0,0,0,0,0,0,0,0,0,0,0,0,0,0,0,0,0,0,0,0,0,0,0,0,0,0,0,0,0,0,0,0,0,0,0,0,0,0,0,0,0,0,0,0,0,0,0,0,0,0,0,0,0,0,0,0,0,0,0,0,0,0,0,0,0],"sum_hessian":[1.5001776E4,7.976612E3,7.025165E3,3.505819E3,4.4707925E3,4.210273E3,2.814892E3,2.623176E3,8.8264294E2,5.229234E2,3.9478694E3,4.1121367E3,9.813597E1,1.2133169E3,1.6015753E3,9.114127E2,1.7117633E3,2.820121E2,6.0063086E2,3.9187424E2,1.3104918E2,2.1727576E3,1.7751117E3,2.9592002E3,1.1529366E3,1.432971E1,8.380626E1,7.2743896E2,4.8587787E2,8.3238885E2,7.691864E2,8.2986066E2,8.155206E1,1.2149962E3,4.9676712E2,3.926617E1,2.4274591E2,1.9537994E2,4.0525092E2,2.8361798E2,1.08256256E2,8.8485596E1,4.256358E1,1.3055641E2,2.0422012E3,1.2989578E3,4.7615387E2,1.9949087E3,9.6429156E2,1.5130716E2,1.0016295E3,7.762307E0,6.5674024E0,8.0676285E1,3.1299777E0,2.87897E2,4.39542E2,5.1312423E0,4.807466E2,5.6635046E2,2.6603836E2,4.5090674E2,3.1827966E2,6.195531E2,2.1030759E2,2.8654966E1,5.28971E1,1.2009275E3,1.4068784E1,1.1140088E2,3.8536624E2,1.04245735E2,1.3850018E2,2.9706024E1,1.6567392E2,3.711279E2,3.412301E1,8.947837E1,1.9413959E2,6.4396805E1,4.3859455E1,3.005599E1,5.8429604E1,2.129616E1,2.126742E1,3.3915092E1,9.664132E1,3.2364655E2,1.7185547E3,9.7529816E2,3.236596E2,3.96012E1,4.3655267E2,8.827964E1,1.906629E3,5.8876537E1,9.0541504E2,7.297843E1,7.832873E1,5.7242267E2,4.2920685E2,1.7456732E1,6.321955E1,9.3691154E1,1.9420584E2,3.0554357E0,2.0758066E0,4.0104575E2,7.970088E1,5.347514E2,3.159908E1,1.3385194E2,1.3218642E2,8.908313E1,3.6182364E2,1.7174054E2,1.4653912E2],"tree_param":{"num_deleted":"0","num_feature":"15","num_nodes":"117","size_leaf_vector":"1"}},{"base_weights":[-7.930193E-4,1.916692E-1,-5.113903E-1,2.0826884E-2,4.3895763E-1,-8.510682E-1,-3.1356764E-1,-1.00361176E-1,4.3904057E-1,1.5242605E-1,5.793904E-1,-7.21487E-1,-9.756431E-1,-6.2533295E-1,-5.617161E-2,2.0953767E-1,-2.8293145E-1,3.2658416E-1,3.3628923E-1,4.1411075E-1,-7.409468E-2,1.09601535E-1,6.433019E-1,-4.1027856E-1,-8.2994825E-1,-3.0458033E-1,-9.1315305E-1,-8.3766454E-1,-4.117696E-1,2.5375009E0,-1.1782449E-1,1.2771793E-1,1.292984E0,-1.037517E0,-2.293541E-1,-1.7556702E-1,6.0232586E-1,3.4836683E-1,4.0658003E-1,-2.2418109E-1,3.6235222E-1,3.3154187E-1,-5.1753503E-1,7.199738E-1,3.4878257E-1,-4.8618674E-1,4.5077023E-1,-9.2471105E-1,-6.8591505E-1,-7.9419154E-1,-2.9265732E-1,-6.373396E-1,-9.1075474E-1,7.096151E-1,-4.637116E-1,5.6436485E-1,8.600367E-1,5.043426E-2,-5.9185517E-1,7.0910364E-2,-2.2326101E-1,4.938722E-1,3.5557926E-1,-3.7485346E-1,-1.7931238E-1,3.759564E-1,-8.874786E-2,-1.643222E-1,3.6711227E-2,3.291678E-1,1.23505495E-1,1.2836696E-1,-1.1427001E-1,-2.437695E-1,-3.8470566E-2,1.4152497E-1,-1.6701935E-1,-3.3506716E-3,1.393246E-1,-1.6003827E-2,-2.4816127E-1,2.442902E-1,1.5965568E-1,7.2219083E-3,1.6141422E-1,-2.0297484E-1,-1.816107E-2,-2.8923032E-1,-2.2795661E-1,6.918972E-1,-2.1646048E-1,-2.5563443E-1,-1.3817722E-1,-1.08798005E-1,-2.5863332E-1,-3.083861E-1,-2.5567093E-1,-8.7204054E-2,-2.691151E-1,5.3799376E-2,-2.2106029E-1,-8.6495295E-2,-2.158221E-1],"categories":[],"categories_nodes":[],"categories_segments":[],"categories_sizes":[],"default_left":[0,0,0,0,0,0,0,0,0,0,0,0,0,0,0,0,0,0,0,0,0,0,0,0,0,0,0,0,0,0,0,0,0,0,0,0,0,0,0,0,0,0,0,0,0,0,0,0,0,0,0,0,0,0,0,0,0,0,0,0,0,0,0,0,0,0,0,0,0,0,0,0,0,0,0,0,0,0,0,0,0,0,0,0,0,0,0,0,0,0,0,0,0,0,0,0,0,0,0,0,0,0,0],"id":9,"left_children":[1,3,5,7,9,11,13,15,17,19,21,23,25,27,29,31,33,-1,35,37,39,41,43,45,47,-1,49,51,53,55,57,59,61,63,65,67,69,71,-1,73,75,77,79,81,83,85,-1,87,89,91,-1,93,95,-1,97,-1,-1,99,101,-1,-1,-1,-1,-1,-1,-1,-1,-1,-1,-1,-1,-1,-1,-1,-1,-1,-1,-1,-1,-1,-1,-1,-1,-1,-1,-1,-1,-1,-1,-1,-1,-1,-1,-1,-1,-1,-1,-1,-1,-1,-1,-1,-1],"loss_changes":[1.345663E3,4.2013483E2,2.5162195E2,2.9818808E2,1.6341168E2,2.1557495E1,1.9019254E2,2.5815546E2,8.785901E1,7.933206E1,8.1791626E1,2.2604828E1,8.0688477E-1,4.826352E1,2.0811177E2,1.4980182E2,1.15833786E2,0E0,1.5571638E2,3.7944855E1,4.710922E1,4.578382E1,5.393872E1,2.652731E1,6.232788E0,0E0,1.3152313E0,7.275635E0,7.847113E1,1.1374512E0,1.013538E2,1.4929228E2,2.5646973E0,1.6972992E1,2.6467285E2,4.3488262E1,7.051291E1,3.389688E1,0E0,3.0089148E1,1.8772268E1,1.1055037E1,1.2325029E1,3.3277893E1,3.056921E1,1.3868889E1,0E0,1.2193298E0,2.335669E1,1.5835953E0,0E0,8.748581E0,1.8041077E0,0E0,3.9282463E1,0E0,0E0,9.537105E1,1.2680313E1,0E0,0E0,0E0,0E0,0E0,0E0,0E0,0E0,0E0,0E0,0E0,0E0,0E0,0E0,0E0,0E0,0E0,0E0,0E0,0E0,0E0,0E0,0E0,0E0,0E0,0E0,0E0,0E0,0E0,0E0,0E0,0E0,0E0,0E0,0E0,0E0,0E0,0E0,0E0,0E0,0E0,0E0,0E0,0E0],"parents":[2147483647,0,0,1,1,2,2,3,3,4,4,5,5,6,6,7,7,8,8,9,9,10,10,11,11,12,12,13,13,14,14,15,15,16,16,18,18,19,19,20,20,21,21,22,22,23,23,24,24,26,26,27,27,28,28,29,29,30,30,31,31,32,32,33,33,34,34,35,35,36,36,37,37,39,39,40,40,41,41,42,42,43,43,44,44,45,45,47,47,48,48,49,49,51,51,52,52,54,54,57,57,58,58],"right_children":[2,4,6,8,10,12,14,16,18,20,22,24,26,28,30,32,34,-1,36,38,40,42,44,46,48,-1,50,52,54,56,58,60,62,64,66,68,70,72,-1,74,76,78,80,82,84,86,-1,88,90,92,-1,94,96,-1,98,-1,-1,100,102,-1,-1,-1,-1,-1,-1,-1,-1,-1,-1,-1,-1,-1,-1,-1,-1,-1,-1,-1,-1,-1,-1,-1,-1,-1,-1,-1,-1,-1,-1,-1,-1,-1,-1,-1,-1,-1,-1,-1,-1,-1,-1,-1,-1],"split_conditions":[6.333333E-1,1E0,1E0,6.071528E-1,1E0,8E-1,6.014689E-1,4E-1,8E-1,4.1666666E-1,2.20302E-1,3.9949477E-1,6.014689E-1,6.086509E-1,8E-1,3.845673E-1,4.0049908E-1,3.2658416E-1,8.020704E-1,4.0049908E-1,6.071528E-1,3.9520475E-1,6E-1,2.0033292E-1,6.014689E-1,-3.0458033E-1,8.666667E-1,7.1666664E-1,7.9631263E-1,7E-1,8E-1,3.8333333E-1,1E0,2.0795915E-1,4.1666666E-1,1E0,1E0,4E-1,4.0658003E-1,2.20302E-1,1E0,3.4680945E-1,3.9772925E-1,4.6666667E-1,5.0628436E-1,8.0168664E-1,4.5077023E-1,8.0615973E-1,7.739364E-1,8.388016E-1,-2.9265732E-1,1E0,2.20302E-1,7.096151E-1,7.954788E-1,5.6436485E-1,8.600367E-1,8.833333E-1,7E-1,7.0910364E-2,-2.2326101E-1,4.938722E-1,3.5557926E-1,-3.7485346E-1,-1.7931238E-1,3.759564E-1,-8.874786E-2,-1.643222E-1,3.6711227E-2,3.291678E-1,1.23505495E-1,1.2836696E-1,-1.1427001E-1,-2.437695E-1,-3.8470566E-2,1.4152497E-1,-1.6701935E-1,-3.3506716E-3,1.393246E-1,-1.6003827E-2,-2.4816127E-1,2.442902E-1,1.5965568E-1,7.2219083E-3,1.6141422E-1,-2.0297484E-1,-1.816107E-2,-2.8923032E-1,-2.2795661E-1,6.918972E-1,-2.1646048E-1,-2.5563443E-1,-1.3817722E-1,-1.08798005E-1,-2.5863332E-1,-3.083861E-1,-2.5567093E-1,-8.7204054E-2,-2.691151E-1,5.3799376E-2,-2.2106029E-1,-8.6495295E-2,-2.158221E-1],"split_indices":[1,14,9,3,9,1,4,1,3,1,11,7,4,11,4,1,1,0,3,1,3,7,7,7,4,0,1,1,11,1,7,1,9,3,1,13,3,1,0,11,6,10,1,1,10,4,0,11,4,10,0,0,11,0,7,0,0,1,1,0,0,0,0,0,0,0,0,0,0,0,0,0,0,0,0,0,0,0,0,0,0,0,0,0,0,0,0,0,0,0,0,0,0,0,0,0,0,0,0,0,0,0,0],"split_type":[0,0,0,0,0,0,0,0,0,0,0,0,0,0,0,0,0,0,0,0,0,0,0,0,0,0,0,0,0,0,0,0,0,0,0,0,0,0,0,0,0,0,0,0,0,0,0,0,0,0,0,0,0,0,0,0,0,0,0,0,0,0,0,0,0,0,0,0,0,0,0,0,0,0,0,0,0,0,0,0,0,0,0,0,0,0,0,0,0,0,0,0,0,0,0,0,0,0,0,0,0,0,0],"sum_hessian":[1.3691434E4,9.943864E3,3.74757E3,5.881583E3,4.0622812E3,1.3780474E3,2.3695227E3,4.5607495E3,1.3208333E3,1.33681E3,2.7254712E3,6.787805E2,6.992668E2,1.0709403E3,1.2985823E3,1.6907261E3,2.8700234E3,1.7908694E2,1.1417463E3,6.1987756E2,7.1693243E2,3.2670496E2,2.398766E3,1.7666301E2,5.0211752E2,4.185926E2,2.806742E2,5.355534E2,5.353869E2,2.9218828E1,1.2693635E3,1.5730503E3,1.1767579E2,1.8905144E2,2.6809722E3,3.905895E2,7.511568E2,5.806843E2,3.919323E1,5.3384045E2,1.83092E2,2.4165564E2,8.504931E1,1.9021399E3,4.9662628E2,1.7063737E2,6.025635E0,2.9959003E2,2.0252751E2,1.0126455E2,1.7940964E2,1.4576414E2,3.8978925E2,9.011934E0,5.26375E2,1.2005114E1,1.7213713E1,9.3749146E2,3.3187207E2,1.3994003E3,1.7365009E2,2.4160675E1,9.3515114E1,1.26321556E2,6.2729885E1,1.1428114E2,2.566691E3,1.7328696E2,2.1730255E2,2.075654E2,5.4359143E2,5.239621E2,5.6722263E1,7.379945E1,4.6004102E2,1.6405177E2,1.9040215E1,6.7772064E1,1.7388358E2,3.4502663E1,5.054665E1,1.2639272E3,6.3821265E2,1.8329167E2,3.133346E2,1.17492615E2,5.3144768E1,2.3789922E2,6.1690807E1,1.6326032E0,2.008949E2,8.4958855E1,1.6305696E1,6.6775406E1,7.898875E1,1.2429261E2,2.654966E2,3.773647E2,1.490103E2,8.0626245E2,1.3122899E2,9.915983E1,2.3271223E2],"tree_param":{"num_deleted":"0","num_feature":"15","num_nodes":"103","size_leaf_vector":"1"}},{"base_weights":[-2.2644553E-4,2.791214E-1,-2.3468332E-1,2.3866302E-1,1.2267402E0,1.45621775E-2,-4.8263147E-1,2.891386E-1,-6.521555E-1,1.4454126E0,3.4268758E-1,-5.6215566E-2,1.4120632E0,-7.067809E-1,-2.696208E-1,2.4370871E-1,1.2107185E0,-8.603544E-1,-3.0578646E-1,5.180127E-1,3.6037976E-1,2.8771532E-1,-2.153134E-1,4.0775895E-1,5.7537544E-1,-5.9234595E-1,-9.215415E-1,1.8740575E0,-3.3753172E-1,3.13883E-1,-1.1528215E0,1.4020646E0,3.4099108E-1,-1.1559768E0,-5.912156E-1,-2.087475E-1,-1.0978549E0,4.8188917E-2,5.583659E-1,-7.48776E-1,-1.0599461E-1,-9.253535E-1,-4.547117E-1,-3.0014855E-1,-8.4991735E-1,4.137555E-1,2.4417655E0,-6.433029E-1,-8.01531E-2,7.9993114E-2,3.579774E-1,-3.6597854E-1,-8.290232E-2,4.9080765E-1,3.5943294E-1,-2.9145047E-1,-5.322296E-1,-2.032699E-1,5.4770093E-2,-1.48549E-1,1.3467675E-2,-3.9817736E-1,-1.380988E-1,-1.04113035E-1,6.352421E-2,4.4929525E-1,1.4621915E-1,-2.75735E-1,-1.3637163E-1,-1.2996937E-1,1.9527037E-2,-2.1877888E-1,-2.9855058E-1,8.1711155E-1,-1.7216614E-1,-2.9528692E-1,-2.289506E-1,1.0046952E0,5.895016E-1,-3.2899418E-1,-1.7344852E-1,5.7331437E-1,-3.6525264E-2],"categories":[],"categories_nodes":[],"categories_segments":[],"categories_sizes":[],"default_left":[0,0,0,0,0,0,0,0,0,0,0,0,0,0,0,0,0,0,0,0,0,0,0,0,0,0,0,0,0,0,0,0,0,0,0,0,0,0,0,0,0,0,0,0,0,0,0,0,0,0,0,0,0,0,0,0,0,0,0,0,0,0,0,0,0,0,0,0,0,0,0,0,0,0,0,0,0,0,0,0,0,0,0],"id":10,"left_children":[1,3,5,7,9,11,13,15,17,19,-1,21,23,25,27,29,31,33,35,-1,-1,37,39,-1,-1,41,43,45,47,49,51,53,-1,55,57,59,61,63,65,67,69,71,73,-1,75,-1,77,79,81,-1,-1,-1,-1,-1,-1,-1,-1,-1,-1,-1,-1,-1,-1,-1,-1,-1,-1,-1,-1,-1,-1,-1,-1,-1,-1,-1,-1,-1,-1,-1,-1,-1,-1],"loss_changes":[8.25754E2,2.2027884E2,4.2362833E2,2.4834088E2,2.6946716E0,3.3829764E2,1.6388129E2,2.1840247E2,2.1100388E1,2.169632E0,0E0,1.7819957E2,1.8022461E0,4.058893E1,2.5737033E2,4.8834973E2,1.8814392E0,1.3994217E1,8.438507E0,0E0,0E0,6.6751236E1,1.2976076E2,0E0,0E0,4.9754425E1,2.429779E0,1.1889252E1,1.3454375E2,1.96669E2,1.3688293E1,1.1004639E0,0E0,8.1816635E0,6.7125397E0,7.4101505E0,1.1547289E0,3.5469513E1,3.1501831E1,1.855008E1,1.03541855E2,3.6438293E0,2.957143E2,0E0,2.8714752E0,0E0,3.7971802E0,2.2444794E1,7.7243645E1,0E0,0E0,0E0,0E0,0E0,0E0,0E0,0E0,0E0,0E0,0E0,0E0,0E0,0E0,0E0,0E0,0E0,0E0,0E0,0E0,0E0,0E0,0E0,0E0,0E0,0E0,0E0,0E0,0E0,0E0,0E0,0E0,0E0,0E0],"parents":[2147483647,0,0,1,1,2,2,3,3,4,4,5,5,6,6,7,7,8,8,9,9,11,11,12,12,13,13,14,14,15,15,16,16,17,17,18,18,21,21,22,22,25,25,26,26,27,27,28,28,29,29,30,30,31,31,33,33,34,34,35,35,36,36,37,37,38,38,39,39,40,40,41,41,42,42,44,44,46,46,47,47,48,48],"right_children":[2,4,6,8,10,12,14,16,18,20,-1,22,24,26,28,30,32,34,36,-1,-1,38,40,-1,-1,42,44,46,48,50,52,54,-1,56,58,60,62,64,66,68,70,72,74,-1,76,-1,78,80,82,-1,-1,-1,-1,-1,-1,-1,-1,-1,-1,-1,-1,-1,-1,-1,-1,-1,-1,-1,-1,-1,-1,-1,-1,-1,-1,-1,-1,-1,-1,-1,-1,-1,-1],"split_conditions":[4.6666667E-1,4.5239195E-1,4E-1,4.5E-1,1E0,2.0033292E-1,6.014689E-1,4.3501544E-1,1E0,4.011358E-1,3.4268758E-1,2E0,8E-1,7.8333336E-1,8E-1,4.3333334E-1,1E0,1E0,9.7412014E-1,5.180127E-1,3.6037976E-1,6.086509E-1,1.6778608E-1,4.0775895E-1,5.7537544E-1,2.083382E-1,1E0,5.833333E-1,5.0628436E-1,4.1921252E-1,8.020704E-1,3.9134145E-1,3.4099108E-1,7.5294095E-1,8.020704E-1,1E0,6.014689E-1,3.4680945E-1,8E-1,1E0,4.070558E-1,2E0,3.9687163E-1,-3.0014855E-1,3.4680945E-1,4.137555E-1,6.884339E-1,5.1908094E-1,5.833333E-1,7.9993114E-2,3.579774E-1,-3.6597854E-1,-8.290232E-2,4.9080765E-1,3.5943294E-1,-2.9145047E-1,-5.322296E-1,-2.032699E-1,5.4770093E-2,-1.48549E-1,1.3467675E-2,-3.9817736E-1,-1.380988E-1,-1.04113035E-1,6.352421E-2,4.4929525E-1,1.4621915E-1,-2.75735E-1,-1.3637163E-1,-1.2996937E-1,1.9527037E-2,-2.1877888E-1,-2.9855058E-1,8.1711155E-1,-1.7216614E-1,-2.9528692E-1,-2.289506E-1,1.0046952E0,5.895016E-1,-3.2899418E-1,-1.7344852E-1,5.7331437E-1,-3.6525264E-2],"split_indices":[1,1,7,1,9,7,4,1,14,3,0,8,1,1,4,1,9,13,7,0,0,11,10,0,0,4,9,1,10,1,3,3,0,6,3,9,4,10,11,14,11,8,4,0,10,0,11,1,10,0,0,0,0,0,0,0,0,0,0,0,0,0,0,0,0,0,0,0,0,0,0,0,0,0,0,0,0,0,0,0,0,0,0],"split_type":[0,0,0,0,0,0,0,0,0,0,0,0,0,0,0,0,0,0,0,0,0,0,0,0,0,0,0,0,0,0,0,0,0,0,0,0,0,0,0,0,0,0,0,0,0,0,0,0,0,0,0,0,0,0,0,0,0,0,0,0,0,0,0,0,0,0,0,0,0,0,0,0,0,0,0,0,0,0,0,0,0,0,0],"sum_hessian":[1.260589E4,5.7521714E3,6.8537183E3,5.51784E3,2.3433119E2,3.4183865E3,3.4353315E3,5.222593E3,2.9524722E2,6.0794014E1,1.7353719E2,3.2545183E3,1.6386833E2,1.6727705E3,1.762561E3,4.978442E3,2.4415105E2,1.834771E2,1.1177013E2,2.5426353E1,3.536766E1,1.0290828E3,2.2254353E3,1.5170102E2,1.2167306E1,1.0937339E3,5.790366E2,5.3306015E1,1.709255E3,4.740987E3,2.3745476E2,6.3140064E1,1.8101097E2,8.586633E1,9.761076E1,1.0069695E2,1.1073176E1,5.4655676E2,4.8252603E2,3.7748834E2,1.847947E3,3.181772E2,7.755567E2,2.6925735E2,3.097793E2,3.0312193E1,2.2993822E1,7.805024E2,9.287526E2,4.5005254E3,2.4046138E2,2.2020325E2,1.72515E1,2.6136652E1,3.7003414E1,6.811074E1,1.7755598E1,8.792326E1,9.687499E0,4.6845596E1,5.3851357E1,7.3474345E0,3.725742E0,1.5964917E2,3.869076E2,3.2484493E1,4.5004153E2,2.3772456E2,1.3976376E2,6.33915E2,1.2140321E3,8.654428E1,2.316329E2,2.7238886E1,7.483178E2,1.17471436E2,1.9230786E2,5.845694E0,1.7148127E1,9.607088E1,6.844315E2,1.8085703E1,9.1066693E2],"tree_param":{"num_deleted":"0","num_feature":"15","num_nodes":"83","size_leaf_vector":"1"}},{"base_weights":[7.352759E-4,9.932489E-2,-5.0624925E-1,-4.6092328E-2,3.456449E-1,-8.4426564E-1,-3.174829E-1,1.3194243E-2,-6.752885E-1,1.2812294E0,2.2972302E-1,-7.275288E-1,-2.9093233E-1,-5.1720667E-1,6.631229E-2,-5.1780835E-2,1.2904512E0,-7.6499933E-1,1.1875651E-2,1.2095945E0,1.9576999E0,-7.247441E-2,3.780064E-1,-4.6241644E-1,-8.38329E-1,-3.5050175E-1,-8.3155704E-1,1.5140392E0,-5.4380137E-2,-1.6621101E-1,2.4017341E-1,1.2084779E0,5.947825E-1,-4.5634523E-1,-8.9953727E-1,3.5031858E-1,-5.6102484E-1,1.4103296E0,3.349143E-1,8.6192244E-1,1.6420361E0,-4.9173552E-1,1.1067138E-1,7.078047E-2,5.1645297E-1,-5.409073E-1,3.8154516E-1,-8.883119E-1,-5.711751E-1,-6.5321124E-1,-8.3528E-2,-2.8860825E-1,-6.015173E-1,3.7181488E-1,6.115565E-1,-4.7260705E-1,3.1918484E-1,-9.934183E-2,1.7068302E-2,3.46695E-1,1.3708582E-2,4.090337E-1,3.4152424E-1,-2.0666003E-1,-6.7715533E-3,-1.6786778E-1,-2.9325455E-1,5.8351774E-2,2.3770075E-1,-2.8102407E-1,8.232244E-3,4.7562367E-1,3.6358055E-1,7.4967915E-1,4.3881732E-1,-8.262245E-2,-1.88152E-1,4.2702812E-1,-4.2407945E-2,5.16514E-2,-1.3919042E-1,1.1277055E-1,2.3984176E-1,-2.1578641E-1,-6.0506124E-2,-2.3755358E-1,-2.976827E-1,-2.3022838E-1,-3.9866544E-2,-2.334028E-1,-1.3209888E-1,7.33794E-1,-4.430655E-2,-3.043003E-1,-1.3481282E-1,-8.562172E-2,-2.2785397E-1,-2.7676167E-2,2.0527674E-1],"categories":[],"categories_nodes":[],"categories_segments":[],"categories_sizes":[],"default_left":[0,0,0,0,0,0,0,0,0,0,0,0,0,0,0,0,0,0,0,0,0,0,0,0,0,0,0,0,0,0,0,0,0,0,0,0,0,0,0,0,0,0,0,0,0,0,0,0,0,0,0,0,0,0,0,0,0,0,0,0,0,0,0,0,0,0,0,0,0,0,0,0,0,0,0,0,0,0,0,0,0,0,0,0,0,0,0,0,0,0,0,0,0,0,0,0,0,0,0],"id":11,"left_children":[1,3,5,7,9,11,13,15,17,19,21,23,-1,25,27,29,31,33,35,37,39,41,43,45,47,49,51,53,55,57,59,61,-1,63,65,67,69,71,-1,-1,73,75,77,79,81,83,-1,85,87,89,91,-1,93,-1,-1,95,97,-1,-1,-1,-1,-1,-1,-1,-1,-1,-1,-1,-1,-1,-1,-1,-1,-1,-1,-1,-1,-1,-1,-1,-1,-1,-1,-1,-1,-1,-1,-1,-1,-1,-1,-1,-1,-1,-1,-1,-1,-1,-1],"loss_changes":[5.910505E2,3.5461807E2,1.2256775E2,2.3224765E2,3.9827975E2,9.393005E0,9.484583E1,4.7233118E2,3.305945E1,1.7254395E1,1.4660808E2,1.0219666E1,0E0,4.23468E1,7.421023E1,1.8098352E2,1.3236206E1,1.9282501E1,1.2391559E1,5.3257446E0,6.0189056E0,8.279711E1,9.330609E1,1.5479752E1,2.876831E0,4.3053673E1,7.862091E0,2.1812592E0,6.148281E1,1.4321689E2,2.7154474E2,1.1502075E0,0E0,1.4709393E1,8.181519E0,2.611343E0,5.2749677E0,2.0086517E0,0E0,0E0,9.486313E-1,9.431221E0,2.4860222E2,3.7104633E1,5.9870453E1,6.1881027E0,0E0,1.3373871E0,3.574727E0,6.294731E0,4.654778E1,0E0,6.10421E0,0E0,0E0,9.752354E0,3.129805E1,0E0,0E0,0E0,0E0,0E0,0E0,0E0,0E0,0E0,0E0,0E0,0E0,0E0,0E0,0E0,0E0,0E0,0E0,0E0,0E0,0E0,0E0,0E0,0E0,0E0,0E0,0E0,0E0,0E0,0E0,0E0,0E0,0E0,0E0,0E0,0E0,0E0,0E0,0E0,0E0,0E0,0E0],"parents":[2147483647,0,0,1,1,2,2,3,3,4,4,5,5,6,6,7,7,8,8,9,9,10,10,11,11,13,13,14,14,15,15,16,16,17,17,18,18,19,19,20,20,21,21,22,22,23,23,24,24,25,25,26,26,27,27,28,28,29,29,30,30,31,31,33,33,34,34,35,35,36,36,37,37,40,40,41,41,42,42,43,43,44,44,45,45,47,47,48,48,49,49,50,50,52,52,55,55,56,56],"right_children":[2,4,6,8,10,12,14,16,18,20,22,24,-1,26,28,30,32,34,36,38,40,42,44,46,48,50,52,54,56,58,60,62,-1,64,66,68,70,72,-1,-1,74,76,78,80,82,84,-1,86,88,90,92,-1,94,-1,-1,96,98,-1,-1,-1,-1,-1,-1,-1,-1,-1,-1,-1,-1,-1,-1,-1,-1,-1,-1,-1,-1,-1,-1,-1,-1,-1,-1,-1,-1,-1,-1,-1,-1,-1,-1,-1,-1,-1,-1,-1,-1,-1,-1],"split_conditions":[7.1666664E-1,7.5088716E-1,1E0,7.5E-1,8.333333E-1,8.5E-1,8.0168664E-1,6.764675E-1,6.071528E-1,5.864015E-1,1E0,3.9949477E-1,-2.9093233E-1,8.666667E-1,1E0,8.0615973E-1,5.6666666E-1,2E0,8E-1,1E0,6E-1,8.388016E-1,4.070558E-1,2.0033292E-1,8.388016E-1,6.086509E-1,1E0,8.1666666E-1,5.8991945E-1,2.0795915E-1,1E0,1E0,5.947825E-1,1E0,3.6666667E-1,8.0615973E-1,1E0,4.011358E-1,3.349143E-1,8.6192244E-1,1E0,4.16088E-1,9.166667E-1,5E0,4.011358E-1,1E0,3.8154516E-1,7.817597E-1,1E0,4.070558E-1,8E-1,-2.8860825E-1,2.083382E-1,3.7181488E-1,6.115565E-1,8.333333E-1,6.086509E-1,-9.934183E-2,1.7068302E-2,3.46695E-1,1.3708582E-2,4.090337E-1,3.4152424E-1,-2.0666003E-1,-6.7715533E-3,-1.6786778E-1,-2.9325455E-1,5.8351774E-2,2.3770075E-1,-2.8102407E-1,8.232244E-3,4.7562367E-1,3.6358055E-1,7.4967915E-1,4.3881732E-1,-8.262245E-2,-1.88152E-1,4.2702812E-1,-4.2407945E-2,5.16514E-2,-1.3919042E-1,1.1277055E-1,2.3984176E-1,-2.1578641E-1,-6.0506124E-2,-2.3755358E-1,-2.976827E-1,-2.3022838E-1,-3.9866544E-2,-2.334028E-1,-1.3209888E-1,7.33794E-1,-4.430655E-2,-3.043003E-1,-1.3481282E-1,-8.562172E-2,-2.2785397E-1,-2.7676167E-2,2.0527674E-1],"split_indices":[1,10,9,10,10,1,4,10,3,1,9,7,0,1,4,11,1,8,6,9,4,10,11,7,10,11,14,1,10,3,11,9,0,14,1,11,14,3,0,0,9,1,10,8,3,14,0,7,14,11,11,0,4,0,0,1,11,0,0,0,0,0,0,0,0,0,0,0,0,0,0,0,0,0,0,0,0,0,0,0,0,0,0,0,0,0,0,0,0,0,0,0,0,0,0,0,0,0,0],"split_type":[0,0,0,0,0,0,0,0,0,0,0,0,0,0,0,0,0,0,0,0,0,0,0,0,0,0,0,0,0,0,0,0,0,0,0,0,0,0,0,0,0,0,0,0,0,0,0,0,0,0,0,0,0,0,0,0,0,0,0,0,0,0,0,0,0,0,0,0,0,0,0,0,0,0,0,0,0,0,0,0,0,0,0,0,0,0,0,0,0,0,0,0,0,0,0,0,0,0,0],"sum_hessian":[1.1822927E4,9.898786E3,1.9241411E3,6.224758E3,3.6740283E3,6.882489E2,1.2358923E3,5.6896265E3,5.351311E2,4.0393E2,3.2700984E3,3.6010678E2,3.281421E2,8.12649E2,4.232433E2,5.4151147E3,2.7451175E2,4.7323584E2,6.189526E1,3.677728E2,3.615718E1,1.0765764E3,2.193522E3,1.0766631E2,2.5244048E2,5.3241565E2,2.8023334E2,3.1680885E1,3.915624E2,3.8906301E3,1.5244847E3,2.4789862E2,2.6613117E1,1.4499144E2,3.282444E2,3.9153633E1,2.2741627E1,1.1214308E2,2.5562973E2,7.194011E0,2.8963171E1,3.2679218E2,7.497843E2,6.818791E2,1.5116428E3,1.03662674E2,4.00364E0,2.106955E2,4.1744976E1,2.4883087E2,2.835848E2,1.7678506E2,1.0344826E2,2.2999676E1,8.681209E0,1.8461285E2,2.0694955E2,2.2366929E3,1.6539371E3,2.662431E2,1.2582416E3,7.1435814E1,1.7646281E2,9.4009926E1,5.098151E1,6.2765816E1,2.6547858E2,3.0013727E1,9.139908E0,1.3518515E1,9.223112E0,5.5857655E1,5.6285427E1,2.773402E0,2.6189768E1,1.2699058E2,1.9980159E2,1.2001483E2,6.297695E2,5.73768E2,1.081111E2,1.0115983E3,5.0004446E2,6.720314E1,3.6459534E1,1.1375764E2,9.693786E1,2.8315216E1,1.342976E1,1.5519556E2,9.363531E1,6.096817E0,2.7748798E2,2.6332138E1,7.711612E1,1.1292561E2,7.168724E1,9.7647316E1,1.0930224E2],"tree_param":{"num_deleted":"0","num_feature":"15","num_nodes":"99","size_leaf_vector":"1"}},{"base_weights":[3.0872E-3,9.2799075E-2,-4.3008336E-1,6.421606E-2,1.7172326E0,-6.853602E-1,-2.2233875E-1,-7.98119E-2,2.9007277E-1,1.3509738E0,2.8941188E0,-8.8694066E-1,-5.425199E-1,4.0215296E-1,-2.968626E-1,-3.0460125E-1,9.302448E-2,5.4797906E-1,1.6584036E-1,4.4233277E-1,3.5940507E-1,3.5520577E0,6.815015E-1,-5.1487565E-1,-9.1502565E-1,-7.858291E-1,-3.6162868E-1,1.3436563E-1,-5.1827955E-1,-6.6757417E-1,-1.6047235E-1,1.564854E-1,-5.4348004E-1,2.6657262E-1,6.7097634E-1,1.071516E-2,4.589201E-1,1.207504E0,6.0845315E-1,1.0783762E-2,-8.580062E-1,-9.982324E-1,-8.361999E-1,-8.922517E-1,-5.85627E-1,1.8868089E0,-6.629413E-1,2.9405516E-1,-5.149229E-1,-7.991867E-1,-3.330188E-1,-1.6405863E-1,-3.260072E-1,2.8290281E-2,-1.1969236E-1,3.7625484E-2,4.3780616E-1,5.0423887E-2,-2.0153758E-1,1.23585515E-1,-9.220848E-2,2.0795117E-1,-1.0913884E-1,-1.1115836E-1,8.2980484E-2,1.791643E-1,5.2849717E-2,2.3492295E-1,-1.9312353E-1,-3.396643E-1,-1.835825E-1,-3.1841922E-1,-2.5097218E-1,-2.8084794E-1,-1.4446886E-1,-2.139961E-1,-3.2299668E-1,-7.033668E-2,-2.5071877E-1,4.6836755E-1,1.0173985E0,-1.442593E-1,-2.6018423E-1,-2.4692392E-1,1.1015087E-1,-2.414456E-1,-5.21239E-2,-2.8438336E-1,-1.4860627E-1,3.7415475E-1,-1.6097766E-1],"categories":[],"categories_nodes":[],"categories_segments":[],"categories_sizes":[],"default_left":[0,0,0,0,0,0,0,0,0,0,0,0,0,0,0,0,0,0,0,0,0,0,0,0,0,0,0,0,0,0,0,0,0,0,0,0,0,0,0,0,0,0,0,0,0,0,0,0,0,0,0,0,0,0,0,0,0,0,0,0,0,0,0,0,0,0,0,0,0,0,0,0,0,0,0,0,0,0,0,0,0,0,0,0,0,0,0,0,0,0,0],"id":12,"left_children":[1,3,5,7,9,11,13,15,17,19,21,23,25,-1,27,29,31,33,35,-1,-1,37,-1,39,41,43,45,47,49,51,53,55,57,59,61,63,65,-1,-1,67,69,71,73,75,77,79,81,83,85,87,89,-1,-1,-1,-1,-1,-1,-1,-1,-1,-1,-1,-1,-1,-1,-1,-1,-1,-1,-1,-1,-1,-1,-1,-1,-1,-1,-1,-1,-1,-1,-1,-1,-1,-1,-1,-1,-1,-1,-1,-1],"loss_changes":[4.3032397E2,4.2583148E2,1.0060431E2,2.9331152E2,6.4447754E1,2.4049866E1,1.2256908E2,2.1394984E2,1.1240045E2,5.531311E-1,6.98703E0,3.2044983E0,2.1774994E1,0E0,9.5744705E1,1.2511238E2,1.2584996E2,3.9312347E1,1.0778891E2,0E0,0E0,3.439087E0,0E0,4.8747053E0,1.302002E0,4.012985E0,1.972653E2,3.5481285E1,3.419995E1,3.3807922E1,1.0422269E2,1.1444664E2,2.590599E1,2.921952E1,1.8470703E1,1.5736305E2,3.198204E1,0E0,0E0,6.388676E0,4.092207E-1,6.776886E-1,5.698036E0,3.7550583E0,6.548773E0,1.1581017E1,9.102982E0,2.2691847E1,6.5486736E0,1.139415E1,1.296014E2,0E0,0E0,0E0,0E0,0E0,0E0,0E0,0E0,0E0,0E0,0E0,0E0,0E0,0E0,0E0,0E0,0E0,0E0,0E0,0E0,0E0,0E0,0E0,0E0,0E0,0E0,0E0,0E0,0E0,0E0,0E0,0E0,0E0,0E0,0E0,0E0,0E0,0E0,0E0,0E0],"parents":[2147483647,0,0,1,1,2,2,3,3,4,4,5,5,6,6,7,7,8,8,9,9,10,10,11,11,12,12,14,14,15,15,16,16,17,17,18,18,21,21,23,23,24,24,25,25,26,26,27,27,28,28,29,29,30,30,31,31,32,32,33,33,34,34,35,35,36,36,39,39,40,40,41,41,42,42,43,43,44,44,45,45,46,46,47,47,48,48,49,49,50,50],"right_children":[2,4,6,8,10,12,14,16,18,20,22,24,26,-1,28,30,32,34,36,-1,-1,38,-1,40,42,44,46,48,50,52,54,56,58,60,62,64,66,-1,-1,68,70,72,74,76,78,80,82,84,86,88,90,-1,-1,-1,-1,-1,-1,-1,-1,-1,-1,-1,-1,-1,-1,-1,-1,-1,-1,-1,-1,-1,-1,-1,-1,-1,-1,-1,-1,-1,-1,-1,-1,-1,-1,-1,-1,-1,-1,-1,-1],"split_conditions":[8E-1,6.024133E-1,6.014689E-1,1E0,5.6666666E-1,1E0,8E-1,1E0,2E0,8.0168664E-1,8.0615973E-1,3.1666666E-1,8.00807E-1,4.0215296E-1,2E0,3.4680945E-1,6E-1,1E0,4.011358E-1,4.4233277E-1,3.5940507E-1,8.5031515E-1,6.815015E-1,1E0,5.0628436E-1,1E0,1E0,7E-1,8.0168664E-1,5E0,4.6666667E-1,4.0094125E-1,3.6538658E-1,3.9726543E-1,9E-1,4.0472737E-1,8E-1,1.207504E0,6.0845315E-1,2E0,8.00807E-1,4.0472737E-1,8.0615973E-1,3E0,5.878612E-1,5.6666666E-1,3E0,3.0652087E-2,6.086509E-1,7.5088716E-1,1E0,-1.6405863E-1,-3.260072E-1,2.8290281E-2,-1.1969236E-1,3.7625484E-2,4.3780616E-1,5.0423887E-2,-2.0153758E-1,1.23585515E-1,-9.220848E-2,2.0795117E-1,-1.0913884E-1,-1.1115836E-1,8.2980484E-2,1.791643E-1,5.2849717E-2,2.3492295E-1,-1.9312353E-1,-3.396643E-1,-1.835825E-1,-3.1841922E-1,-2.5097218E-1,-2.8084794E-1,-1.4446886E-1,-2.139961E-1,-3.2299668E-1,-7.033668E-2,-2.5071877E-1,4.6836755E-1,1.0173985E0,-1.442593E-1,-2.6018423E-1,-2.4692392E-1,1.1015087E-1,-2.414456E-1,-5.21239E-2,-2.8438336E-1,-1.4860627E-1,3.7415475E-1,-1.6097766E-1],"split_indices":[7,7,4,14,1,9,4,13,8,4,11,1,7,0,8,10,7,9,3,0,0,10,0,0,10,14,7,1,4,8,1,7,1,7,1,4,6,0,0,8,7,4,11,8,11,1,8,10,11,10,4,0,0,0,0,0,0,0,0,0,0,0,0,0,0,0,0,0,0,0,0,0,0,0,0,0,0,0,0,0,0,0,0,0,0,0,0,0,0,0,0],"split_type":[0,0,0,0,0,0,0,0,0,0,0,0,0,0,0,0,0,0,0,0,0,0,0,0,0,0,0,0,0,0,0,0,0,0,0,0,0,0,0,0,0,0,0,0,0,0,0,0,0,0,0,0,0,0,0,0,0,0,0,0,0,0,0,0,0,0,0,0,0,0,0,0,0,0,0,0,0,0,0,0,0,0,0,0,0,0,0,0,0,0,0],"sum_hessian":[1.1071518E4,9.172608E3,1.8989092E3,9.015022E3,1.5758594E2,8.5095526E2,1.0479539E3,5.505093E3,3.50993E3,1.2182173E2,3.576421E1,3.5075296E2,5.0020227E2,4.6923706E1,1.0010302E3,2.3925728E3,3.1125198E3,1.1399614E3,2.3699685E3,6.2628044E1,5.919369E1,1.5098357E1,2.0665854E1,2.5974878E1,3.247781E2,2.1187453E2,2.8832773E2,3.397437E2,6.612865E2,6.789869E2,1.7135859E3,2.8310154E3,2.8150436E2,3.4767676E2,7.9228467E2,1.5503925E3,8.19576E2,1.0269726E1,4.828631E0,1.06413765E1,1.5333502E1,1.5232417E2,1.7245393E2,1.3608061E2,7.5793915E1,3.3450836E1,2.5487689E2,2.7311856E2,6.662514E1,2.6148627E2,3.9980023E2,5.2894666E2,1.500402E2,8.288233E2,8.847626E2,2.7661523E3,6.4863106E1,4.2959652E1,2.3854472E2,2.7763364E2,7.004311E1,7.7597144E2,1.6313227E1,6.3684894E2,9.135436E2,5.496378E2,2.699382E2,4.791447E0,5.8499293E0,5.5487857E0,9.784716E0,1.0552615E2,4.679801E1,1.3325436E2,3.919957E1,7.1535904E1,6.454471E1,3.2332672E1,4.3461243E1,2.9174953E1,4.2758827E0,1.3655377E2,1.1832313E2,1.6146986E1,2.569716E2,3.5284855E1,3.1340284E1,1.7411755E2,8.7368706E1,4.5042164E1,3.5475806E2],"tree_param":{"num_deleted":"0","num_feature":"15","num_nodes":"91","size_leaf_vector":"1"}},{"base_weights":[2.5943061E-3,5.5287827E-2,-5.885834E-1,-1.731937E-1,1.7419386E-1,-8.8039094E-1,-4.219921E-1,-5.016412E-1,-7.744272E-2,-4.9301534E-4,3.4968013E-1,-7.51333E-1,-9.51191E-1,-8.0142874E-1,-2.5391847E-1,-2.4173589E-1,-6.256003E-1,1.5765101E0,-1.04536556E-1,-5.2799076E-2,5.5414486E-1,1.2411842E0,2.6610652E-1,-8.2028174E-1,-4.748933E-1,-2.96834E-1,-8.070762E-1,-6.562138E-1,-9.224861E-1,-4.546615E-1,1.7715056E-1,-3.353812E-1,3.6490345E-1,-7.5818175E-1,-3.8710284E-1,2.2373238E0,4.0061668E-1,-2.2692277E-1,9.418815E-2,2.5081184E-2,-3.9122027E-1,3.1079388E-1,3.933366E-1,3.3774662E-1,1.7545657E0,-3.3521503E-2,4.3220574E-1,-6.564599E-1,-2.6410908E-1,2.717812E-1,-6.1257976E-1,-2.8800216E-1,-4.6035117E-1,-8.2664675E-1,-3.6806488E-1,-5.943512E-1,-2.858048E-1,-7.4886847E-1,-2.2234042E-1,5.1388323E-1,-2.4866983E-1,-1.6307831E-1,3.558508E-3,-1.30287E-1,2.0899282E-1,-2.9791158E-1,-1.6870457E-1,-7.721034E-2,-2.667755E-1,7.9719025E-1,3.6962825E-1,-4.2416602E-2,-1.630964E-1,-5.3741224E-3,1.1543632E-1,-1.9336827E-2,9.323352E-2,-7.905604E-2,-2.0716475E-1,1.8052697E-1,3.1369552E-2,4.4394502E-1,6.034559E-1,-5.7499863E-2,1.2753639E-1,3.324236E-1,9.3452156E-2,-2.263194E-1,2.5060818E-1,-2.3094185E-1,2.5783172E-2,-2.8236507E-2,-2.669997E-1,-2.7309498E-1,-8.377582E-2,-2.2149284E-1,-1.8819E-2,-2.548667E-1,-7.932503E-2,-1.637977E-1,-2.9552E-1,2.9780414E-2,-1.8009284E-1,2.4249776E-1,-4.0056616E-2,-2.0336246E-1,6.5122604E-2],"categories":[],"categories_nodes":[],"categories_segments":[],"categories_sizes":[],"default_left":[0,0,0,0,0,0,0,0,0,0,0,0,0,0,0,0,0,0,0,0,0,0,0,0,0,0,0,0,0,0,0,0,0,0,0,0,0,0,0,0,0,0,0,0,0,0,0,0,0,0,0,0,0,0,0,0,0,0,0,0,0,0,0,0,0,0,0,0,0,0,0,0,0,0,0,0,0,0,0,0,0,0,0,0,0,0,0,0,0,0,0,0,0,0,0,0,0,0,0,0,0,0,0,0,0,0,0],"id":13,"left_children":[1,3,5,7,9,11,13,15,17,19,21,23,25,27,29,31,33,35,37,39,41,43,45,47,49,-1,51,53,55,57,59,61,63,65,67,69,-1,71,73,75,77,-1,79,-1,81,83,85,87,-1,-1,89,-1,91,93,95,97,-1,99,101,103,105,-1,-1,-1,-1,-1,-1,-1,-1,-1,-1,-1,-1,-1,-1,-1,-1,-1,-1,-1,-1,-1,-1,-1,-1,-1,-1,-1,-1,-1,-1,-1,-1,-1,-1,-1,-1,-1,-1,-1,-1,-1,-1,-1,-1,-1,-1],"loss_changes":[3.2952444E2,2.6389676E2,4.1712738E1,1.0452793E2,1.9584119E2,2.151657E0,3.5063904E1,2.402266E1,1.1558305E2,9.293819E1,2.3711868E2,1.8192673E0,2.9751587E-1,2.3708038E0,3.337137E1,1.39797735E1,1.5750717E1,3.6365356E0,6.1676502E1,7.716716E1,2.0984085E1,1.4186005E1,1.4509247E2,3.2147598E-1,5.404761E0,0E0,2.0570889E0,3.6458626E0,3.2421112E-1,1.779329E1,1.7757727E1,1.5321981E1,9.077707E0,1.4392456E1,1.1714464E1,7.930527E-1,0E0,4.243341E1,3.150524E1,6.092087E1,2.075431E1,0E0,1.2492378E1,0E0,4.3162537E-1,7.555668E1,1.5265302E2,4.787183E0,0E0,0E0,2.6792116E0,0E0,2.488316E0,2.0238075E0,3.5368853E0,6.3686657E-1,0E0,4.997574E0,1.8079884E1,1.3258064E1,1.11353035E1,0E0,0E0,0E0,0E0,0E0,0E0,0E0,0E0,0E0,0E0,0E0,0E0,0E0,0E0,0E0,0E0,0E0,0E0,0E0,0E0,0E0,0E0,0E0,0E0,0E0,0E0,0E0,0E0,0E0,0E0,0E0,0E0,0E0,0E0,0E0,0E0,0E0,0E0,0E0,0E0,0E0,0E0,0E0,0E0,0E0,0E0],"parents":[2147483647,0,0,1,1,2,2,3,3,4,4,5,5,6,6,7,7,8,8,9,9,10,10,11,11,12,12,13,13,14,14,15,15,16,16,17,17,18,18,19,19,20,20,21,21,22,22,23,23,24,24,26,26,27,27,28,28,29,29,30,30,31,31,32,32,33,33,34,34,35,35,37,37,38,38,39,39,40,40,42,42,44,44,45,45,46,46,47,47,50,50,52,52,53,53,54,54,55,55,57,57,58,58,59,59,60,60],"right_children":[2,4,6,8,10,12,14,16,18,20,22,24,26,28,30,32,34,36,38,40,42,44,46,48,50,-1,52,54,56,58,60,62,64,66,68,70,-1,72,74,76,78,-1,80,-1,82,84,86,88,-1,-1,90,-1,92,94,96,98,-1,100,102,104,106,-1,-1,-1,-1,-1,-1,-1,-1,-1,-1,-1,-1,-1,-1,-1,-1,-1,-1,-1,-1,-1,-1,-1,-1,-1,-1,-1,-1,-1,-1,-1,-1,-1,-1,-1,-1,-1,-1,-1,-1,-1,-1,-1,-1,-1,-1],"split_conditions":[8E-1,1E0,1E0,2.5451744E-1,6.086509E-1,8.666667E-1,4.0472737E-1,2E0,3.3333334E-1,8.020704E-1,8E-1,8.0615973E-1,8.0168664E-1,1E0,8.0615973E-1,8.745105E-1,6.3862777E-1,4.070558E-1,1E0,5E0,1E0,5.6666666E-1,8.0615973E-1,3.7499994E-1,9.9195474E-1,-2.96834E-1,1E0,1E0,8.1666666E-1,5.0628436E-1,8.666667E-1,6.014689E-1,4.011358E-1,4.0472737E-1,2.5E-1,6.071528E-1,4.0061668E-1,6E-1,8.0615973E-1,8.0168664E-1,6E-1,3.1079388E-1,6E-1,3.3774662E-1,3.9520475E-1,4.011358E-1,1E0,2.0033292E-1,-2.6410908E-1,2.717812E-1,8.388016E-1,-2.8800216E-1,9.5E-1,8.00807E-1,2.083382E-1,5.0628436E-1,-2.858048E-1,4.0094125E-1,8.833333E-1,5.739242E-1,1E0,-1.6307831E-1,3.558508E-3,-1.30287E-1,2.0899282E-1,-2.9791158E-1,-1.6870457E-1,-7.721034E-2,-2.667755E-1,7.9719025E-1,3.6962825E-1,-4.2416602E-2,-1.630964E-1,-5.3741224E-3,1.1543632E-1,-1.9336827E-2,9.323352E-2,-7.905604E-2,-2.0716475E-1,1.8052697E-1,3.1369552E-2,4.4394502E-1,6.034559E-1,-5.7499863E-2,1.2753639E-1,3.324236E-1,9.3452156E-2,-2.263194E-1,2.5060818E-1,-2.3094185E-1,2.5783172E-2,-2.8236507E-2,-2.669997E-1,-2.7309498E-1,-8.377582E-2,-2.2149284E-1,-1.8819E-2,-2.548667E-1,-7.932503E-2,-1.637977E-1,-2.9552E-1,2.9780414E-2,-1.8009284E-1,2.4249776E-1,-4.0056616E-2,-2.0336246E-1,6.5122604E-2],"split_indices":[1,9,9,10,11,1,4,8,10,3,11,11,4,0,11,5,5,11,14,8,3,1,11,7,11,0,14,14,1,10,1,4,3,4,10,3,0,7,11,4,11,0,6,0,7,3,11,7,0,0,10,0,1,7,4,10,0,7,1,7,14,0,0,0,0,0,0,0,0,0,0,0,0,0,0,0,0,0,0,0,0,0,0,0,0,0,0,0,0,0,0,0,0,0,0,0,0,0,0,0,0,0,0,0,0,0,0],"split_type":[0,0,0,0,0,0,0,0,0,0,0,0,0,0,0,0,0,0,0,0,0,0,0,0,0,0,0,0,0,0,0,0,0,0,0,0,0,0,0,0,0,0,0,0,0,0,0,0,0,0,0,0,0,0,0,0,0,0,0,0,0,0,0,0,0,0,0,0,0,0,0,0,0,0,0,0,0,0,0,0,0,0,0,0,0,0,0,0,0,0,0,0,0,0,0,0,0,0,0,0,0,0,0,0,0,0,0],"sum_hessian":[1.0576171E4,9.711464E3,8.647068E2,3.3239458E3,6.3875186E3,3.1269455E2,5.520122E2,7.493312E2,2.5746145E3,3.20155E3,3.1859685E3,1.14886246E2,1.978083E2,1.6829884E2,3.8371338E2,2.4292981E2,5.0640137E2,4.0573986E1,2.5340405E3,2.9264692E3,2.750808E2,2.718812E2,2.9140874E3,9.037732E1,2.4508932E1,1.516791E2,4.612921E1,7.943406E1,8.8864784E1,2.6176038E2,1.2195299E2,2.1083145E2,3.209835E1,3.2407053E2,1.8233086E2,8.633713E0,3.1940275E1,1.5681444E3,9.658962E2,2.379748E3,5.4672125E2,6.747153E1,2.0760927E2,2.2460341E2,4.7277798E1,1.039579E3,1.8745084E3,2.7451862E1,6.2925457E1,1.7163435E0,2.2792587E1,3.0782917E1,1.5346293E1,4.873795E1,3.0696106E1,9.231541E0,7.963324E1,1.1451603E2,1.4724435E2,6.798479E1,5.39682E1,1.3144762E2,7.9383835E1,9.324809E0,2.277354E1,1.4550275E2,1.7856778E2,1.4609763E2,3.623322E1,4.930367E0,3.7033455E0,1.2358475E3,3.3229678E2,6.976923E2,2.682039E2,1.8124896E3,5.672584E2,3.84546E2,1.6217525E2,1.1995108E2,8.7658195E1,2.6114183E1,2.1163612E1,7.7346313E2,2.6611584E2,2.8279086E2,1.5917175E3,2.6224531E1,1.2273312E0,1.8521624E1,4.270965E0,8.942674E0,6.4036202E0,4.1700916E1,7.037035E0,1.3232519E1,1.7463587E1,4.3172345E0,4.9143066E0,6.338487E1,5.113116E1,7.9951836E1,6.729252E1,4.6560375E1,2.1424414E1,2.784881E1,2.611939E1],"tree_param":{"num_deleted":"0","num_feature":"15","num_nodes":"107","size_leaf_vector":"1"}},{"base_weights":[2.8382773E-3,2.4503666E-1,-9.8865636E-2,1.7680547E-1,1.1555351E0,3.3734065E-2,-2.9126886E-1,2.6110297E-1,-5.562512E-1,1.2308798E0,3.1884658E-1,-2.137578E-2,3.866791E-1,-6.199849E-1,-1.6657878E-1,1.7685121E-1,1.1646844E0,-4.282173E-1,-8.705071E-1,4.2788473E-1,3.4409055E-1,7.32926E-2,-3.450592E-1,-8.106239E-1,-4.6955293E-1,2.5115921E0,-2.3178956E-1,2.8242597E-1,-8.2222253E-1,3.894768E-1,3.3259016E-1,-2.292662E-1,-8.285797E-1,-1.0942454E0,-4.962195E-1,2.421179E-2,1.2482624E0,-1.0046297E0,-2.4366389E-1,-1.0005859E0,-7.048773E-1,1.8077521E0,-6.5321434E-1,4.7895533E-1,3.7587068E0,-5.7484757E-2,-4.379435E-1,5.508988E-2,3.4791183E-1,-3.2900038E-1,-1.7546867E-1,-1.18053325E-1,7.3420584E-2,-3.1984776E-1,-2.094094E-1,-2.5832444E-1,-5.100594E-1,-2.1979694E-1,2.2237256E-2,-4.4418935E-2,6.73268E-2,4.3467805E-1,3.4232795E-1,-1.8619813E-1,-3.8245106E-1,3.998553E-1,-8.833447E-2,-4.591349E-1,-2.6662973E-1,3.5562083E-1,-2.2282097E-1,4.083406E-1,6.389358E-1,-2.4654877E-1,-1.4871189E-1,5.9326845E-1,1.2738264E0,-1.1415E-1,2.792388E-2,-2.3784557E-1,-1.0345093E-1],"categories":[],"categories_nodes":[],"categories_segments":[],"categories_sizes":[],"default_left":[0,0,0,0,0,0,0,0,0,0,0,0,0,0,0,0,0,0,0,0,0,0,0,0,0,0,0,0,0,0,0,0,0,0,0,0,0,0,0,0,0,0,0,0,0,0,0,0,0,0,0,0,0,0,0,0,0,0,0,0,0,0,0,0,0,0,0,0,0,0,0,0,0,0,0,0,0,0,0,0,0],"id":14,"left_children":[1,3,5,7,9,11,13,15,17,19,-1,21,-1,23,25,27,29,31,33,-1,-1,35,37,39,41,43,45,47,49,-1,-1,51,53,55,57,59,61,63,65,67,69,71,73,-1,75,77,79,-1,-1,-1,-1,-1,-1,-1,-1,-1,-1,-1,-1,-1,-1,-1,-1,-1,-1,-1,-1,-1,-1,-1,-1,-1,-1,-1,-1,-1,-1,-1,-1,-1,-1],"loss_changes":[2.4856572E2,1.8519014E2,1.8132101E2,1.7177315E2,1.4382935E-1,2.911181E2,1.187451E2,1.8947675E2,1.1165298E1,1.40625E-1,0E0,1.235795E2,0E0,2.2477264E1,3.67961E2,2.4075012E2,1.503601E-1,1.6196121E1,6.327591E0,0E0,0E0,1.799249E2,6.0787247E1,6.328842E0,1.8850835E2,5.1158325E1,7.3799774E1,1.7859404E2,1.3570007E1,0E0,0E0,1.090302E1,1.3620377E0,5.6736755E0,4.440281E0,1.0338325E2,1.0370026E0,1.1791634E1,6.3827187E1,5.917862E0,1.722078E1,1.9466629E0,1.0619339E1,0E0,9.363617E0,5.4233036E1,3.0821716E1,0E0,0E0,0E0,0E0,0E0,0E0,0E0,0E0,0E0,0E0,0E0,0E0,0E0,0E0,0E0,0E0,0E0,0E0,0E0,0E0,0E0,0E0,0E0,0E0,0E0,0E0,0E0,0E0,0E0,0E0,0E0,0E0,0E0,0E0],"parents":[2147483647,0,0,1,1,2,2,3,3,4,4,5,5,6,6,7,7,8,8,9,9,11,11,13,13,14,14,15,15,16,16,17,17,18,18,21,21,22,22,23,23,24,24,25,25,26,26,27,27,28,28,31,31,32,32,33,33,34,34,35,35,36,36,37,37,38,38,39,39,40,40,41,41,42,42,44,44,45,45,46,46],"right_children":[2,4,6,8,10,12,14,16,18,20,-1,22,-1,24,26,28,30,32,34,-1,-1,36,38,40,42,44,46,48,50,-1,-1,52,54,56,58,60,62,64,66,68,70,72,74,-1,76,78,80,-1,-1,-1,-1,-1,-1,-1,-1,-1,-1,-1,-1,-1,-1,-1,-1,-1,-1,-1,-1,-1,-1,-1,-1,-1,-1,-1,-1,-1,-1,-1,-1,-1,-1],"split_conditions":[4E-1,3.845673E-1,4E-1,3.8333333E-1,4.1141245E-1,2.0033292E-1,4.0472737E-1,3.687384E-1,6E-1,1E0,3.1884658E-1,8E-1,3.866791E-1,2.083382E-1,5.996367E-1,3.6666667E-1,1E0,6E-1,6.764675E-1,4.2788473E-1,3.4409055E-1,6.0943747E-1,2.0795915E-1,4.0094125E-1,3.9687163E-1,5.6666666E-1,3E0,3.5168254E-1,1E0,3.894768E-1,3.3259016E-1,6.014689E-1,4.070558E-1,5E0,8.029559E-1,2.0795915E-1,4.7850823E-1,6E-1,4E-1,4.5239195E-1,6E-1,5.251166E-1,1E0,4.7895533E-1,2.5E-1,4.070558E-1,6.014689E-1,5.508988E-2,3.4791183E-1,-3.2900038E-1,-1.7546867E-1,-1.18053325E-1,7.3420584E-2,-3.1984776E-1,-2.094094E-1,-2.5832444E-1,-5.100594E-1,-2.1979694E-1,2.2237256E-2,-4.4418935E-2,6.73268E-2,4.3467805E-1,3.4232795E-1,-1.8619813E-1,-3.8245106E-1,3.998553E-1,-8.833447E-2,-4.591349E-1,-2.6662973E-1,3.5562083E-1,-2.2282097E-1,4.083406E-1,6.389358E-1,-2.4654877E-1,-1.4871189E-1,5.9326845E-1,1.2738264E0,-1.1415E-1,2.792388E-2,-2.3784557E-1,-1.0345093E-1],"split_indices":[1,1,7,1,3,7,4,1,6,9,0,6,0,4,4,1,9,7,10,0,0,6,3,7,4,1,8,1,0,0,0,4,11,8,6,3,3,11,3,1,7,1,12,0,10,11,4,0,0,0,0,0,0,0,0,0,0,0,0,0,0,0,0,0,0,0,0,0,0,0,0,0,0,0,0,0,0,0,0,0,0],"split_type":[0,0,0,0,0,0,0,0,0,0,0,0,0,0,0,0,0,0,0,0,0,0,0,0,0,0,0,0,0,0,0,0,0,0,0,0,0,0,0,0,0,0,0,0,0,0,0,0,0,0,0,0,0,0,0,0,0,0,0,0,0,0,0,0,0,0,0,0,0,0,0,0,0,0,0,0,0,0,0,0,0],"sum_hessian":[1.0088974E4,2.9832446E3,7.1057285E3,2.7763816E3,2.0686311E2,4.2071123E3,2.8986165E3,2.490618E3,2.8576367E2,1.0734861E2,9.95145E1,4.031108E3,1.7600429E2,7.960487E2,2.1025679E3,2.279288E3,2.1132974E2,2.0471959E2,8.1044075E1,2.744364E1,7.990497E1,3.1195112E3,9.115966E2,3.491679E2,4.4688077E2,4.908675E1,2.0534812E3,2.0620981E3,2.1719003E2,5.591622E1,1.5541353E2,1.3781044E2,6.690915E1,4.9519318E1,3.152476E1,2.9954077E3,1.241035E2,1.2027922E2,7.913174E2,1.2183772E2,2.2733018E2,3.2690678E1,4.141901E2,2.9627579E1,1.945917E1,1.1133845E3,9.400966E2,1.8544702E3,2.0762794E2,9.903958E1,1.18150444E2,1.0247273E2,3.5337715E1,2.1186323E1,4.5722824E1,3.7507774E1,1.2011544E1,2.2084856E1,9.439901E0,1.6101699E3,1.3852379E3,3.8846684E1,8.525682E1,5.104306E1,